<?xml version="1.0"?>
<MethodSetup Method="BDT::BDT2_800_Grad">
  <GeneralInfo>
    <Info name="TMVA Release" value="4.2.1 [262657]"/>
    <Info name="ROOT Release" value="6.24/00 [399360]"/>
    <Info name="Creator" value="root"/>
    <Info name="Date" value="Sun Jul 18 20:07:22 2021"/>
    <Info name="Host" value="Linux 3bfcc9c0a42a 4.15.0-1111-azure #123~16.04.1-Ubuntu SMP Sat Mar 20 01:52:07 UTC 2021 x86_64 x86_64 x86_64 GNU/Linux"/>
    <Info name="Dir" value="/root"/>
    <Info name="Training events" value="137141"/>
    <Info name="TrainingTime" value="3.96285989e+01"/>
    <Info name="AnalysisType" value="Classification"/>
  </GeneralInfo>
  <Options>
    <Option name="V" modified="Yes">False</Option>
    <Option name="VerbosityLevel" modified="No">Default</Option>
    <Option name="VarTransform" modified="No">None</Option>
    <Option name="H" modified="No">False</Option>
    <Option name="CreateMVAPdfs" modified="No">False</Option>
    <Option name="IgnoreNegWeightsInTraining" modified="No">False</Option>
    <Option name="NTrees" modified="Yes">800</Option>
    <Option name="MaxDepth" modified="Yes">3</Option>
    <Option name="MinNodeSize" modified="Yes">2.5%</Option>
    <Option name="nCuts" modified="No">20</Option>
    <Option name="BoostType" modified="Yes">Grad</Option>
    <Option name="AdaBoostR2Loss" modified="No">quadratic</Option>
    <Option name="UseBaggedBoost" modified="No">False</Option>
    <Option name="Shrinkage" modified="No">1.000000e+00</Option>
    <Option name="AdaBoostBeta" modified="No">5.000000e-01</Option>
    <Option name="UseRandomisedTrees" modified="No">False</Option>
    <Option name="UseNvars" modified="No">3</Option>
    <Option name="UsePoissonNvars" modified="No">True</Option>
    <Option name="BaggedSampleFraction" modified="No">6.000000e-01</Option>
    <Option name="UseYesNoLeaf" modified="No">True</Option>
    <Option name="NegWeightTreatment" modified="No">pray</Option>
    <Option name="Css" modified="No">1.000000e+00</Option>
    <Option name="Cts_sb" modified="No">1.000000e+00</Option>
    <Option name="Ctb_ss" modified="No">1.000000e+00</Option>
    <Option name="Cbb" modified="No">1.000000e+00</Option>
    <Option name="NodePurityLimit" modified="No">5.000000e-01</Option>
    <Option name="SeparationType" modified="Yes">sdivsqrtsplusb</Option>
    <Option name="RegressionLossFunctionBDTG" modified="No">huber</Option>
    <Option name="HuberQuantile" modified="No">7.000000e-01</Option>
    <Option name="DoBoostMonitor" modified="No">False</Option>
    <Option name="UseFisherCuts" modified="No">False</Option>
    <Option name="MinLinCorrForFisher" modified="No">8.000000e-01</Option>
    <Option name="UseExclusiveVars" modified="No">False</Option>
    <Option name="DoPreselection" modified="No">False</Option>
    <Option name="SigToBkgFraction" modified="No">1.000000e+00</Option>
    <Option name="PruneMethod" modified="No">nopruning</Option>
    <Option name="PruneStrength" modified="No">0.000000e+00</Option>
    <Option name="PruningValFraction" modified="No">5.000000e-01</Option>
    <Option name="SkipNormalization" modified="No">False</Option>
    <Option name="nEventsMin" modified="No">0</Option>
    <Option name="UseBaggedGrad" modified="No">False</Option>
    <Option name="GradBaggingFraction" modified="No">6.000000e-01</Option>
    <Option name="UseNTrainEvents" modified="No">0</Option>
    <Option name="NNodesMax" modified="No">0</Option>
  </Options>
  <Variables NVar="7">
    <Variable VarIndex="0" Expression="max_eta" Label="max_eta" Title="max_eta" Unit="" Internal="max_eta" Type="F" Min="6.06918335e-03" Max="2.49267578e+00"/>
    <Variable VarIndex="1" Expression="lep_eta1" Label="lep_eta1" Title="lep_eta1" Unit="" Internal="lep_eta1" Type="F" Min="-2.49169922e+00" Max="2.49267578e+00"/>
    <Variable VarIndex="2" Expression="inv_m" Label="inv_m" Title="inv_m" Unit="" Internal="inv_m" Type="F" Min="1.50092745e+01" Max="1.82872693e+03"/>
    <Variable VarIndex="3" Expression="dRHJ" Label="dRHJ" Title="dRHJ" Unit="" Internal="dRHJ" Type="F" Min="4.00012076e-01" Max="4.19309711e+00"/>
    <Variable VarIndex="4" Expression="dRLJ" Label="dRLJ" Title="dRLJ" Unit="" Internal="dRLJ" Type="F" Min="4.00010526e-01" Max="4.04821348e+00"/>
    <Variable VarIndex="5" Expression="dPhi0" Label="dPhi0" Title="dPhi0" Unit="" Internal="dPhi0" Type="F" Min="-3.14158392e+00" Max="3.14149237e+00"/>
    <Variable VarIndex="6" Expression="dPhi1" Label="dPhi1" Title="dPhi1" Unit="" Internal="dPhi1" Type="F" Min="-3.14158392e+00" Max="3.14158392e+00"/>
  </Variables>
  <Spectators NSpec="0"/>
  <Classes NClass="2">
    <Class Name="Signal" Index="0"/>
    <Class Name="Background" Index="1"/>
  </Classes>
  <Transformations NTransformations="0"/>
  <MVAPdfs/>
  <Weights NTrees="800" AnalysisType="1">
    <BinaryTree type="DecisionTree" boostWeight="1.0000000000000000e+00" itree="0">
      <Node pos="s" depth="0" NCoef="0" IVar="2" Cut="1.8774429321289062e+02" cType="1" res="3.2122887417839437e-17" rms="5.0000000000000000e-01" purity="5.0000000000000000e-01" nType="0">
        <Node pos="l" depth="1" NCoef="0" IVar="3" Cut="1.6242299079895020e+00" cType="1" res="4.2247533798217773e-02" rms="4.9821195006370544e-01" purity="5.4224753379821777e-01" nType="0">
          <Node pos="l" depth="2" NCoef="0" IVar="2" Cut="1.2193760681152344e+02" cType="1" res="6.2455728650093079e-02" rms="4.9608394503593445e-01" purity="5.6245571374893188e-01" nType="0">
            <Node pos="l" depth="3" NCoef="0" IVar="-1" Cut="0.0000000000000000e+00" cType="1" res="1.6849035024642944e-01" rms="4.9285164475440979e-01" purity="5.8424514532089233e-01" nType="-99"/>
            <Node pos="r" depth="3" NCoef="0" IVar="-1" Cut="0.0000000000000000e+00" cType="1" res="1.8915699329227209e-03" rms="4.9999910593032837e-01" purity="5.0094574689865112e-01" nType="-99"/>
          </Node>
          <Node pos="r" depth="2" NCoef="0" IVar="3" Cut="1.9739576578140259e+00" cType="1" res="-6.0382373631000519e-02" rms="4.9634057283401489e-01" purity="4.3961760401725769e-01" nType="0">
            <Node pos="l" depth="3" NCoef="0" IVar="-1" Cut="0.0000000000000000e+00" cType="1" res="-3.8449130952358246e-02" rms="4.9963027238845825e-01" purity="4.8077544569969177e-01" nType="-99"/>
            <Node pos="r" depth="3" NCoef="0" IVar="-1" Cut="0.0000000000000000e+00" cType="1" res="-2.4986515939235687e-01" rms="4.8414030671119690e-01" purity="3.7506744265556335e-01" nType="-99"/>
          </Node>
        </Node>
        <Node pos="r" depth="1" NCoef="0" IVar="2" Cut="2.6588787841796875e+02" cType="1" res="-2.0244243741035461e-01" rms="4.5718383789062500e-01" purity="2.9755756258964539e-01" nType="0">
          <Node pos="l" depth="2" NCoef="0" IVar="3" Cut="1.1225044727325439e+00" cType="1" res="-1.4054226875305176e-01" rms="4.7984150052070618e-01" purity="3.5945770144462585e-01" nType="0">
            <Node pos="l" depth="3" NCoef="0" IVar="-1" Cut="0.0000000000000000e+00" cType="1" res="-1.8271303176879883e-01" rms="4.9158313870429993e-01" purity="4.0864348411560059e-01" nType="-99"/>
            <Node pos="r" depth="3" NCoef="0" IVar="-1" Cut="0.0000000000000000e+00" cType="1" res="-4.1643461585044861e-01" rms="4.5458284020423889e-01" purity="2.9178270697593689e-01" nType="-99"/>
          </Node>
          <Node pos="r" depth="2" NCoef="0" IVar="3" Cut="1.1045759916305542e+00" cType="1" res="-2.8700006008148193e-01" rms="4.0942761301994324e-01" purity="2.1299993991851807e-01" nType="0">
            <Node pos="l" depth="3" NCoef="0" IVar="-1" Cut="0.0000000000000000e+00" cType="1" res="-4.5183414220809937e-01" rms="4.4605097174644470e-01" purity="2.7408292889595032e-01" nType="-99"/>
            <Node pos="r" depth="3" NCoef="0" IVar="-1" Cut="0.0000000000000000e+00" cType="1" res="-7.3648208379745483e-01" rms="3.3822852373123169e-01" purity="1.3175894320011139e-01" nType="-99"/>
          </Node>
        </Node>
      </Node>
    </BinaryTree>
    <BinaryTree type="DecisionTree" boostWeight="1.0000000000000000e+00" itree="1">
      <Node pos="s" depth="0" NCoef="0" IVar="4" Cut="1.4423542022705078e+00" cType="1" res="-2.5693255010992289e-03" rms="4.8677244782447815e-01" purity="5.0000000000000000e-01" nType="0">
        <Node pos="l" depth="1" NCoef="0" IVar="0" Cut="1.7832173109054565e+00" cType="1" res="1.5130341984331608e-02" rms="4.8646524548530579e-01" purity="5.2074038982391357e-01" nType="0">
          <Node pos="l" depth="2" NCoef="0" IVar="4" Cut="7.4744874238967896e-01" cType="1" res="3.0880710110068321e-02" rms="4.8735356330871582e-01" purity="5.4555296897888184e-01" nType="0">
            <Node pos="l" depth="3" NCoef="0" IVar="-1" Cut="0.0000000000000000e+00" cType="1" res="1.3171356916427612e-01" rms="4.8540458083152771e-01" purity="5.7204705476760864e-01" nType="-99"/>
            <Node pos="r" depth="3" NCoef="0" IVar="-1" Cut="0.0000000000000000e+00" cType="1" res="3.0223729088902473e-02" rms="4.8752814531326294e-01" purity="5.3209298849105835e-01" nType="-99"/>
          </Node>
          <Node pos="r" depth="2" NCoef="0" IVar="0" Cut="2.1887207031250000e+00" cType="1" res="-4.5081242918968201e-02" rms="4.7829657793045044e-01" purity="4.2588496208190918e-01" nType="0">
            <Node pos="l" depth="3" NCoef="0" IVar="-1" Cut="0.0000000000000000e+00" cType="1" res="-5.7165037840604782e-02" rms="4.8182913661003113e-01" purity="4.4928285479545593e-01" nType="-99"/>
            <Node pos="r" depth="3" NCoef="0" IVar="-1" Cut="0.0000000000000000e+00" cType="1" res="-2.0556992292404175e-01" rms="4.6484401822090149e-01" purity="3.6183339357376099e-01" nType="-99"/>
          </Node>
        </Node>
        <Node pos="r" depth="1" NCoef="0" IVar="5" Cut="1.9446066617965698e+00" cType="1" res="-5.9881865978240967e-02" rms="4.8333880305290222e-01" purity="4.3284150958061218e-01" nType="0">
          <Node pos="l" depth="2" NCoef="0" IVar="5" Cut="-1.6884639263153076e+00" cType="1" res="-7.5215369462966919e-02" rms="4.8180368542671204e-01" purity="4.1484224796295166e-01" nType="0">
            <Node pos="l" depth="3" NCoef="0" IVar="-1" Cut="0.0000000000000000e+00" cType="1" res="-5.4412279278039932e-02" rms="4.8428082466125488e-01" purity="4.7826898097991943e-01" nType="-99"/>
            <Node pos="r" depth="3" NCoef="0" IVar="-1" Cut="0.0000000000000000e+00" cType="1" res="-1.9622513651847839e-01" rms="4.7965288162231445e-01" purity="3.9181324839591980e-01" nType="-99"/>
          </Node>
          <Node pos="r" depth="2" NCoef="0" IVar="-1" Cut="0.0000000000000000e+00" cType="1" res="1.3486201874911785e-02" rms="4.8436465859413147e-01" purity="5.1069855690002441e-01" nType="-99"/>
        </Node>
      </Node>
    </BinaryTree>
    <BinaryTree type="DecisionTree" boostWeight="1.0000000000000000e+00" itree="2">
      <Node pos="s" depth="0" NCoef="0" IVar="3" Cut="7.6125824451446533e-01" cType="1" res="-1.6035538283176720e-04" rms="4.8406675457954407e-01" purity="5.0000000000000000e-01" nType="0">
        <Node pos="l" depth="1" NCoef="0" IVar="5" Cut="2.2437944412231445e+00" cType="1" res="2.9343215748667717e-02" rms="4.8553308844566345e-01" purity="5.5219459533691406e-01" nType="0">
          <Node pos="l" depth="2" NCoef="0" IVar="5" Cut="-2.3723342418670654e+00" cType="1" res="1.6453456133604050e-02" rms="4.8695456981658936e-01" purity="5.3742134571075439e-01" nType="0">
            <Node pos="l" depth="3" NCoef="0" IVar="-1" Cut="0.0000000000000000e+00" cType="1" res="1.6354897618293762e-01" rms="4.8001804947853088e-01" purity="6.0512143373489380e-01" nType="-99"/>
            <Node pos="r" depth="3" NCoef="0" IVar="-1" Cut="0.0000000000000000e+00" cType="1" res="8.3921905606985092e-03" rms="4.8739761114120483e-01" purity="5.2374196052551270e-01" nType="-99"/>
          </Node>
          <Node pos="r" depth="2" NCoef="0" IVar="-1" Cut="0.0000000000000000e+00" cType="1" res="1.9377267360687256e-01" rms="4.7340270876884460e-01" purity="6.2484019994735718e-01" nType="-99"/>
        </Node>
        <Node pos="r" depth="1" NCoef="0" IVar="6" Cut="-2.2439885139465332e+00" cType="1" res="-1.0590217076241970e-02" rms="4.8311644792556763e-01" purity="4.8154863715171814e-01" nType="0">
          <Node pos="l" depth="2" NCoef="0" IVar="5" Cut="-4.4908794760704041e-01" cType="1" res="3.1313002109527588e-02" rms="4.8064318299293518e-01" purity="5.3026258945465088e-01" nType="0">
            <Node pos="l" depth="3" NCoef="0" IVar="-1" Cut="0.0000000000000000e+00" cType="1" res="-5.2041739225387573e-02" rms="4.8697024583816528e-01" purity="4.8323729634284973e-01" nType="-99"/>
            <Node pos="r" depth="3" NCoef="0" IVar="-1" Cut="0.0000000000000000e+00" cType="1" res="1.2705250084400177e-01" rms="4.7495746612548828e-01" purity="5.5389314889907837e-01" nType="-99"/>
          </Node>
          <Node pos="r" depth="2" NCoef="0" IVar="6" Cut="1.8593308925628662e+00" cType="1" res="-1.7377056181430817e-02" rms="4.8317402601242065e-01" purity="4.7365868091583252e-01" nType="0">
            <Node pos="l" depth="3" NCoef="0" IVar="-1" Cut="0.0000000000000000e+00" cType="1" res="-5.8516301214694977e-02" rms="4.8220685124397278e-01" purity="4.6247160434722900e-01" nType="-99"/>
            <Node pos="r" depth="3" NCoef="0" IVar="-1" Cut="0.0000000000000000e+00" cType="1" res="3.4941662102937698e-02" rms="4.8490476608276367e-01" purity="5.1139992475509644e-01" nType="-99"/>
          </Node>
        </Node>
      </Node>
    </BinaryTree>
    <BinaryTree type="DecisionTree" boostWeight="1.0000000000000000e+00" itree="3">
      <Node pos="s" depth="0" NCoef="0" IVar="2" Cut="3.6047930908203125e+02" cType="1" res="1.5666110266465694e-04" rms="4.8275575041770935e-01" purity="5.0000000000000000e-01" nType="0">
        <Node pos="l" depth="1" NCoef="0" IVar="1" Cut="1.5432710647583008e+00" cType="1" res="2.9370391275733709e-03" rms="4.8601430654525757e-01" purity="5.1083678007125854e-01" nType="0">
          <Node pos="l" depth="2" NCoef="0" IVar="1" Cut="-1.1467285156250000e+00" cType="1" res="6.5381592139601707e-03" rms="4.8611366748809814e-01" purity="5.2004987001419067e-01" nType="0">
            <Node pos="l" depth="3" NCoef="0" IVar="-1" Cut="0.0000000000000000e+00" cType="1" res="-3.7786856293678284e-02" rms="4.8609578609466553e-01" purity="4.6305358409881592e-01" nType="-99"/>
            <Node pos="r" depth="3" NCoef="0" IVar="-1" Cut="0.0000000000000000e+00" cType="1" res="2.7056582272052765e-02" rms="4.8592314124107361e-01" purity="5.3470134735107422e-01" nType="-99"/>
          </Node>
          <Node pos="r" depth="2" NCoef="0" IVar="0" Cut="2.1310687065124512e+00" cType="1" res="-2.7679346501827240e-02" rms="4.8408770561218262e-01" purity="4.3250778317451477e-01" nType="0">
            <Node pos="l" depth="3" NCoef="0" IVar="-1" Cut="0.0000000000000000e+00" cType="1" res="-3.3572629094123840e-02" rms="4.8827114701271057e-01" purity="4.6083021163940430e-01" nType="-99"/>
            <Node pos="r" depth="3" NCoef="0" IVar="-1" Cut="0.0000000000000000e+00" cType="1" res="-1.4037102460861206e-01" rms="4.6938249468803406e-01" purity="3.4689477086067200e-01" nType="-99"/>
          </Node>
        </Node>
        <Node pos="r" depth="1" NCoef="0" IVar="-1" Cut="0.0000000000000000e+00" cType="1" res="-2.5650358200073242e-01" rms="3.5001328587532043e-01" purity="1.4918848872184753e-01" nType="-99"/>
      </Node>
    </BinaryTree>
    <BinaryTree type="DecisionTree" boostWeight="1.0000000000000000e+00" itree="4">
      <Node pos="s" depth="0" NCoef="0" IVar="5" Cut="1.6455218791961670e+00" cType="1" res="-3.7308255559764802e-04" rms="4.8217752575874329e-01" purity="5.0000000000000000e-01" nType="0">
        <Node pos="l" depth="1" NCoef="0" IVar="6" Cut="1.0471946001052856e+00" cType="1" res="-5.8955256827175617e-03" rms="4.8204013705253601e-01" purity="4.8721301555633545e-01" nType="0">
          <Node pos="l" depth="2" NCoef="0" IVar="5" Cut="-2.2297568321228027e+00" cType="1" res="-2.0090427249670029e-02" rms="4.8224490880966187e-01" purity="4.6850022673606873e-01" nType="0">
            <Node pos="l" depth="3" NCoef="0" IVar="-1" Cut="0.0000000000000000e+00" cType="1" res="5.9696026146411896e-02" rms="4.8243018984794617e-01" purity="5.3622734546661377e-01" nType="-99"/>
            <Node pos="r" depth="3" NCoef="0" IVar="-1" Cut="0.0000000000000000e+00" cType="1" res="-6.8952135741710663e-02" rms="4.8147186636924744e-01" purity="4.5176154375076294e-01" nType="-99"/>
          </Node>
          <Node pos="r" depth="2" NCoef="0" IVar="5" Cut="4.9717426300048828e-02" cType="1" res="2.0226823166012764e-02" rms="4.8056858777999878e-01" purity="5.2164947986602783e-01" nType="0">
            <Node pos="l" depth="3" NCoef="0" IVar="-1" Cut="0.0000000000000000e+00" cType="1" res="9.2665672302246094e-02" rms="4.8002839088439941e-01" purity="5.4450547695159912e-01" nType="-99"/>
            <Node pos="r" depth="3" NCoef="0" IVar="-1" Cut="0.0000000000000000e+00" cType="1" res="-7.5579807162284851e-02" rms="4.7739455103874207e-01" purity="4.6571257710456848e-01" nType="-99"/>
          </Node>
        </Node>
        <Node pos="r" depth="1" NCoef="0" IVar="6" Cut="4.4903427362442017e-01" cType="1" res="1.8342105671763420e-02" rms="4.8217266798019409e-01" purity="5.4333412647247314e-01" nType="0">
          <Node pos="l" depth="2" NCoef="0" IVar="6" Cut="-2.1151995658874512e+00" cType="1" res="5.4651085287332535e-02" rms="4.7656720876693726e-01" purity="5.7458436489105225e-01" nType="0">
            <Node pos="l" depth="3" NCoef="0" IVar="-1" Cut="0.0000000000000000e+00" cType="1" res="-2.9630674049258232e-02" rms="4.7823482751846313e-01" purity="5.7244193553924561e-01" nType="-99"/>
            <Node pos="r" depth="3" NCoef="0" IVar="-1" Cut="0.0000000000000000e+00" cType="1" res="1.5373407304286957e-01" rms="4.7474288940429688e-01" purity="5.7509112358093262e-01" nType="-99"/>
          </Node>
          <Node pos="r" depth="2" NCoef="0" IVar="2" Cut="6.5987609863281250e+01" cType="1" res="-6.3186690211296082e-02" rms="4.8471704125404358e-01" purity="4.7316446900367737e-01" nType="0">
            <Node pos="l" depth="3" NCoef="0" IVar="-1" Cut="0.0000000000000000e+00" cType="1" res="-2.8443925082683563e-02" rms="4.9027439951896667e-01" purity="5.7220828533172607e-01" nType="-99"/>
            <Node pos="r" depth="3" NCoef="0" IVar="-1" Cut="0.0000000000000000e+00" cType="1" res="-2.1357810497283936e-01" rms="4.7762194275856018e-01" purity="4.0310192108154297e-01" nType="-99"/>
          </Node>
        </Node>
      </Node>
    </BinaryTree>
    <BinaryTree type="DecisionTree" boostWeight="1.0000000000000000e+00" itree="5">
      <Node pos="s" depth="0" NCoef="0" IVar="6" Cut="-2.5431869029998779e+00" cType="1" res="8.9068525994662195e-05" rms="4.8007124662399292e-01" purity="5.0000000000000000e-01" nType="0">
        <Node pos="l" depth="1" NCoef="0" IVar="6" Cut="-2.8851315975189209e+00" cType="1" res="4.2954921722412109e-02" rms="4.8042061924934387e-01" purity="5.4853093624114990e-01" nType="0">
          <Node pos="l" depth="2" NCoef="0" IVar="-1" Cut="0.0000000000000000e+00" cType="1" res="1.3618047535419464e-01" rms="4.7832629084587097e-01" purity="5.6780099868774414e-01" nType="-99"/>
          <Node pos="r" depth="2" NCoef="0" IVar="-1" Cut="0.0000000000000000e+00" cType="1" res="5.7492520660161972e-02" rms="4.8151972889900208e-01" purity="5.3264516592025757e-01" nType="-99"/>
        </Node>
        <Node pos="r" depth="1" NCoef="0" IVar="5" Cut="4.4874539971351624e-01" cType="1" res="-4.3210233561694622e-03" rms="4.7981807589530945e-01" purity="4.9500706791877747e-01" nType="0">
          <Node pos="l" depth="2" NCoef="0" IVar="6" Cut="-1.0673189163208008e-01" cType="1" res="-1.3013740070164204e-02" rms="4.7996091842651367e-01" purity="4.8466587066650391e-01" nType="0">
            <Node pos="l" depth="3" NCoef="0" IVar="-1" Cut="0.0000000000000000e+00" cType="1" res="-1.0342820733785629e-01" rms="4.7963333129882812e-01" purity="4.2834493517875671e-01" nType="-99"/>
            <Node pos="r" depth="3" NCoef="0" IVar="-1" Cut="0.0000000000000000e+00" cType="1" res="1.3023659586906433e-02" rms="4.7908082604408264e-01" purity="5.1554054021835327e-01" nType="-99"/>
          </Node>
          <Node pos="r" depth="2" NCoef="0" IVar="6" Cut="-9.1881084442138672e-01" cType="1" res="7.7140536159276962e-03" rms="4.7936010360717773e-01" purity="5.0932449102401733e-01" nType="0">
            <Node pos="l" depth="3" NCoef="0" IVar="-1" Cut="0.0000000000000000e+00" cType="1" res="1.1421183496713638e-01" rms="4.7676837444305420e-01" purity="5.6605023145675659e-01" nType="-99"/>
            <Node pos="r" depth="3" NCoef="0" IVar="-1" Cut="0.0000000000000000e+00" cType="1" res="-3.4196812659502029e-02" rms="4.7908058762550354e-01" purity="4.7934967279434204e-01" nType="-99"/>
          </Node>
        </Node>
      </Node>
    </BinaryTree>
    <BinaryTree type="DecisionTree" boostWeight="1.0000000000000000e+00" itree="6">
      <Node pos="s" depth="0" NCoef="0" IVar="2" Cut="1.0137678527832031e+02" cType="1" res="3.6849021853413433e-05" rms="4.7889906167984009e-01" purity="5.0000000000000000e-01" nType="0">
        <Node pos="l" depth="1" NCoef="0" IVar="2" Cut="7.6699539184570312e+01" cType="1" res="1.5274186618626118e-02" rms="4.8549774289131165e-01" purity="5.6526356935501099e-01" nType="0">
          <Node pos="l" depth="2" NCoef="0" IVar="3" Cut="1.6063189506530762e+00" cType="1" res="2.8160883113741875e-02" rms="4.8644489049911499e-01" purity="5.7003563642501831e-01" nType="0">
            <Node pos="l" depth="3" NCoef="0" IVar="-1" Cut="0.0000000000000000e+00" cType="1" res="4.3514128774404526e-02" rms="4.8533177375793457e-01" purity="5.9298431873321533e-01" nType="-99"/>
            <Node pos="r" depth="3" NCoef="0" IVar="-1" Cut="0.0000000000000000e+00" cType="1" res="1.4512607455253601e-01" rms="4.9011561274528503e-01" purity="4.5867556333541870e-01" nType="-99"/>
          </Node>
          <Node pos="r" depth="2" NCoef="0" IVar="4" Cut="8.6826306581497192e-01" cType="1" res="-8.6388345807790756e-03" rms="4.8282486200332642e-01" purity="5.5640846490859985e-01" nType="0">
            <Node pos="l" depth="3" NCoef="0" IVar="-1" Cut="0.0000000000000000e+00" cType="1" res="3.1709685921669006e-02" rms="4.7538152337074280e-01" purity="6.2384545803070068e-01" nType="-99"/>
            <Node pos="r" depth="3" NCoef="0" IVar="-1" Cut="0.0000000000000000e+00" cType="1" res="-4.6652354300022125e-02" rms="4.8652896285057068e-01" purity="5.1794570684432983e-01" nType="-99"/>
          </Node>
        </Node>
        <Node pos="r" depth="1" NCoef="0" IVar="0" Cut="1.6631559133529663e+00" cType="1" res="-1.4536966569721699e-02" rms="4.7204151749610901e-01" purity="4.3757838010787964e-01" nType="0">
          <Node pos="l" depth="2" NCoef="0" IVar="3" Cut="5.4937440156936646e-01" cType="1" res="-2.3128811269998550e-02" rms="4.7752860188484192e-01" purity="4.7076854109764099e-01" nType="0">
            <Node pos="l" depth="3" NCoef="0" IVar="-1" Cut="0.0000000000000000e+00" cType="1" res="4.7697335481643677e-02" rms="4.8543727397918701e-01" purity="5.5520385503768921e-01" nType="-99"/>
            <Node pos="r" depth="3" NCoef="0" IVar="-1" Cut="0.0000000000000000e+00" cType="1" res="-6.1248607933521271e-02" rms="4.7641614079475403e-01" purity="4.6168184280395508e-01" nType="-99"/>
          </Node>
          <Node pos="r" depth="2" NCoef="0" IVar="4" Cut="7.4754631519317627e-01" cType="1" res="1.3168774312362075e-03" rms="4.6132558584213257e-01" purity="3.7633508443832397e-01" nType="0">
            <Node pos="l" depth="3" NCoef="0" IVar="-1" Cut="0.0000000000000000e+00" cType="1" res="1.0539960116147995e-01" rms="4.7457489371299744e-01" purity="4.4352936744689941e-01" nType="-99"/>
            <Node pos="r" depth="3" NCoef="0" IVar="-1" Cut="0.0000000000000000e+00" cType="1" res="-2.7804251760244370e-02" rms="4.5653918385505676e-01" purity="3.5650387406349182e-01" nType="-99"/>
          </Node>
        </Node>
      </Node>
    </BinaryTree>
    <BinaryTree type="DecisionTree" boostWeight="1.0000000000000000e+00" itree="7">
      <Node pos="s" depth="0" NCoef="0" IVar="4" Cut="1.4423542022705078e+00" cType="1" res="-7.2309194365516305e-05" rms="4.7810125350952148e-01" purity="5.0000000000000000e-01" nType="0">
        <Node pos="l" depth="1" NCoef="0" IVar="6" Cut="2.5431869029998779e+00" cType="1" res="-4.5993523672223091e-03" rms="4.7841393947601318e-01" purity="5.2074038982391357e-01" nType="0">
          <Node pos="l" depth="2" NCoef="0" IVar="5" Cut="-1.3463010787963867e+00" cType="1" res="-7.6619568280875683e-03" rms="4.7811433672904968e-01" purity="5.1582837104797363e-01" nType="0">
            <Node pos="l" depth="3" NCoef="0" IVar="-1" Cut="0.0000000000000000e+00" cType="1" res="2.7282748371362686e-02" rms="4.7935634851455688e-01" purity="5.3861600160598755e-01" nType="-99"/>
            <Node pos="r" depth="3" NCoef="0" IVar="-1" Cut="0.0000000000000000e+00" cType="1" res="-3.3387940376996994e-02" rms="4.7742924094200134e-01" purity="5.0729459524154663e-01" nType="-99"/>
          </Node>
          <Node pos="r" depth="2" NCoef="0" IVar="5" Cut="-4.4803291559219360e-01" cType="1" res="2.3104276508092880e-02" rms="4.8022902011871338e-01" purity="5.6517285108566284e-01" nType="0">
            <Node pos="l" depth="3" NCoef="0" IVar="-1" Cut="0.0000000000000000e+00" cType="1" res="-3.8413211703300476e-02" rms="4.8415026068687439e-01" purity="5.7507032155990601e-01" nType="-99"/>
            <Node pos="r" depth="3" NCoef="0" IVar="-1" Cut="0.0000000000000000e+00" cType="1" res="1.1231958121061325e-01" rms="4.7532114386558533e-01" purity="5.5810219049453735e-01" nType="-99"/>
          </Node>
        </Node>
        <Node pos="r" depth="1" NCoef="0" IVar="5" Cut="1.9446066617965698e+00" cType="1" res="1.4586516655981541e-02" rms="4.7679251432418823e-01" purity="4.3284150958061218e-01" nType="0">
          <Node pos="l" depth="2" NCoef="0" IVar="6" Cut="-1.4937543869018555e-01" cType="1" res="2.2960100322961807e-02" rms="4.7575652599334717e-01" purity="4.1484224796295166e-01" nType="0">
            <Node pos="l" depth="3" NCoef="0" IVar="-1" Cut="0.0000000000000000e+00" cType="1" res="1.0015057027339935e-01" rms="4.7777524590492249e-01" purity="4.2218634486198425e-01" nType="-99"/>
            <Node pos="r" depth="3" NCoef="0" IVar="-1" Cut="0.0000000000000000e+00" cType="1" res="9.3521103262901306e-03" rms="4.7313675284385681e-01" purity="4.0819355845451355e-01" nType="-99"/>
          </Node>
          <Node pos="r" depth="2" NCoef="0" IVar="-1" Cut="0.0000000000000000e+00" cType="1" res="-4.8200815916061401e-02" rms="4.7956693172454834e-01" purity="5.1069855690002441e-01" nType="-99"/>
        </Node>
      </Node>
    </BinaryTree>
    <BinaryTree type="DecisionTree" boostWeight="1.0000000000000000e+00" itree="8">
      <Node pos="s" depth="0" NCoef="0" IVar="4" Cut="1.9635261297225952e+00" cType="1" res="-3.2110139727592468e-05" rms="4.7759497165679932e-01" purity="5.0000000000000000e-01" nType="0">
        <Node pos="l" depth="1" NCoef="0" IVar="4" Cut="1.6657103300094604e+00" cType="1" res="1.8488885834813118e-03" rms="4.7827079892158508e-01" purity="5.0834441184997559e-01" nType="0">
          <Node pos="l" depth="2" NCoef="0" IVar="5" Cut="-2.2438597679138184e+00" cType="1" res="-3.0593358678743243e-04" rms="4.7842645645141602e-01" purity="5.1229614019393921e-01" nType="0">
            <Node pos="l" depth="3" NCoef="0" IVar="-1" Cut="0.0000000000000000e+00" cType="1" res="-3.6024075001478195e-02" rms="4.8203852772712708e-01" purity="5.4253786802291870e-01" nType="-99"/>
            <Node pos="r" depth="3" NCoef="0" IVar="-1" Cut="0.0000000000000000e+00" cType="1" res="4.8502450808882713e-03" rms="4.7780311107635498e-01" purity="5.0750625133514404e-01" nType="-99"/>
          </Node>
          <Node pos="r" depth="2" NCoef="0" IVar="4" Cut="1.7366411685943604e+00" cType="1" res="2.4267038330435753e-02" rms="4.7607031464576721e-01" purity="4.6723192930221558e-01" nType="0">
            <Node pos="l" depth="3" NCoef="0" IVar="-1" Cut="0.0000000000000000e+00" cType="1" res="1.1954972147941589e-01" rms="4.8543831706047058e-01" purity="4.9276018142700195e-01" nType="-99"/>
            <Node pos="r" depth="3" NCoef="0" IVar="-1" Cut="0.0000000000000000e+00" cType="1" res="2.4750620126724243e-02" rms="4.7131058573722839e-01" purity="4.5604071021080017e-01" nType="-99"/>
          </Node>
        </Node>
        <Node pos="r" depth="1" NCoef="0" IVar="6" Cut="-1.4884117245674133e-01" cType="1" res="-2.9511805623769760e-02" rms="4.6588414907455444e-01" purity="3.6922290921211243e-01" nType="0">
          <Node pos="l" depth="2" NCoef="0" IVar="-1" Cut="0.0000000000000000e+00" cType="1" res="-1.2682108581066132e-01" rms="4.6202152967453003e-01" purity="3.6112064123153687e-01" nType="-99"/>
          <Node pos="r" depth="2" NCoef="0" IVar="-1" Cut="0.0000000000000000e+00" cType="1" res="-1.7041390761733055e-02" rms="4.6797379851341248e-01" purity="3.7604844570159912e-01" nType="-99"/>
        </Node>
      </Node>
    </BinaryTree>
    <BinaryTree type="DecisionTree" boostWeight="1.0000000000000000e+00" itree="9">
      <Node pos="s" depth="0" NCoef="0" IVar="0" Cut="2.0190365314483643e+00" cType="1" res="-3.4697666706051677e-05" rms="4.7738379240036011e-01" purity="5.0000000000000000e-01" nType="0">
        <Node pos="l" depth="1" NCoef="0" IVar="6" Cut="-1.6455916166305542e+00" cType="1" res="-1.6254008514806628e-03" rms="4.7921049594879150e-01" purity="5.1554405689239502e-01" nType="0">
          <Node pos="l" depth="2" NCoef="0" IVar="5" Cut="-1.6458053588867188e+00" cType="1" res="1.0202191770076752e-02" rms="4.7953331470489502e-01" purity="5.4492461681365967e-01" nType="0">
            <Node pos="l" depth="3" NCoef="0" IVar="-1" Cut="0.0000000000000000e+00" cType="1" res="-1.7410108447074890e-01" rms="4.8794052004814148e-01" purity="4.8767125606536865e-01" nType="-99"/>
            <Node pos="r" depth="3" NCoef="0" IVar="-1" Cut="0.0000000000000000e+00" cType="1" res="5.3707245737314224e-02" rms="4.7663623094558716e-01" purity="5.5390226840972900e-01" nType="-99"/>
          </Node>
          <Node pos="r" depth="2" NCoef="0" IVar="5" Cut="-7.4789083003997803e-01" cType="1" res="-5.0851823762059212e-03" rms="4.7906082868576050e-01" purity="5.0694978237152100e-01" nType="0">
            <Node pos="l" depth="3" NCoef="0" IVar="-1" Cut="0.0000000000000000e+00" cType="1" res="2.0560957491397858e-02" rms="4.7923192381858826e-01" purity="5.3538012504577637e-01" nType="-99"/>
            <Node pos="r" depth="3" NCoef="0" IVar="-1" Cut="0.0000000000000000e+00" cType="1" res="-3.1691521406173706e-02" rms="4.7871279716491699e-01" purity="4.8849129676818848e-01" nType="-99"/>
          </Node>
        </Node>
        <Node pos="r" depth="1" NCoef="0" IVar="6" Cut="-1.6456108093261719e+00" cType="1" res="1.0504603385925293e-02" rms="4.6496218442916870e-01" purity="3.9701166749000549e-01" nType="0">
          <Node pos="l" depth="2" NCoef="0" IVar="-1" Cut="0.0000000000000000e+00" cType="1" res="-4.0357954800128937e-02" rms="4.5965173840522766e-01" purity="3.9205825328826904e-01" nType="-99"/>
          <Node pos="r" depth="2" NCoef="0" IVar="4" Cut="1.6063516139984131e+00" cType="1" res="1.8584672361612320e-02" rms="4.6616521477699280e-01" purity="3.9843657612800598e-01" nType="0">
            <Node pos="l" depth="3" NCoef="0" IVar="-1" Cut="0.0000000000000000e+00" cType="1" res="6.5541438758373260e-02" rms="4.6892720460891724e-01" purity="4.1289782524108887e-01" nType="-99"/>
            <Node pos="r" depth="3" NCoef="0" IVar="-1" Cut="0.0000000000000000e+00" cType="1" res="-2.1605666726827621e-02" rms="4.5698454976081848e-01" purity="3.5672846436500549e-01" nType="-99"/>
          </Node>
        </Node>
      </Node>
    </BinaryTree>
    <BinaryTree type="DecisionTree" boostWeight="1.0000000000000000e+00" itree="10">
      <Node pos="s" depth="0" NCoef="0" IVar="5" Cut="7.4793946743011475e-01" cType="1" res="2.9268119760672562e-05" rms="4.7689157724380493e-01" purity="5.0000000000000000e-01" nType="0">
        <Node pos="l" depth="1" NCoef="0" IVar="6" Cut="-2.2439885139465332e+00" cType="1" res="-4.1686114855110645e-03" rms="4.7672095894813538e-01" purity="4.8739838600158691e-01" nType="0">
          <Node pos="l" depth="2" NCoef="0" IVar="5" Cut="-9.1935509443283081e-01" cType="1" res="1.8472654744982719e-02" rms="4.7587892413139343e-01" purity="5.2623587846755981e-01" nType="0">
            <Node pos="l" depth="3" NCoef="0" IVar="-1" Cut="0.0000000000000000e+00" cType="1" res="-2.9496243223547935e-02" rms="4.8384252190589905e-01" purity="4.9341854453086853e-01" nType="-99"/>
            <Node pos="r" depth="3" NCoef="0" IVar="-1" Cut="0.0000000000000000e+00" cType="1" res="8.1561021506786346e-02" rms="4.7022861242294312e-01" purity="5.4513853788375854e-01" nType="-99"/>
          </Node>
          <Node pos="r" depth="2" NCoef="0" IVar="5" Cut="-9.1900748014450073e-01" cType="1" res="-7.8446893021464348e-03" rms="4.7675606608390808e-01" purity="4.8109260201454163e-01" nType="0">
            <Node pos="l" depth="3" NCoef="0" IVar="-1" Cut="0.0000000000000000e+00" cType="1" res="3.9393841288983822e-03" rms="4.7787693142890930e-01" purity="5.1994860172271729e-01" nType="-99"/>
            <Node pos="r" depth="3" NCoef="0" IVar="-1" Cut="0.0000000000000000e+00" cType="1" res="-4.3565172702074051e-02" rms="4.7508996725082397e-01" purity="4.3289452791213989e-01" nType="-99"/>
          </Node>
        </Node>
        <Node pos="r" depth="1" NCoef="0" IVar="6" Cut="-2.2439775466918945e+00" cType="1" res="7.2832843288779259e-03" rms="4.7709921002388000e-01" purity="5.2177590131759644e-01" nType="0">
          <Node pos="l" depth="2" NCoef="0" IVar="-1" Cut="0.0000000000000000e+00" cType="1" res="-7.0655278861522675e-02" rms="4.8029717803001404e-01" purity="5.7034021615982056e-01" nType="-99"/>
          <Node pos="r" depth="2" NCoef="0" IVar="2" Cut="1.7547857666015625e+02" cType="1" res="1.3311387971043587e-02" rms="4.7631379961967468e-01" purity="5.1414042711257935e-01" nType="0">
            <Node pos="l" depth="3" NCoef="0" IVar="-1" Cut="0.0000000000000000e+00" cType="1" res="4.2819257825613022e-02" rms="4.8222804069519043e-01" purity="5.6255632638931274e-01" nType="-99"/>
            <Node pos="r" depth="3" NCoef="0" IVar="-1" Cut="0.0000000000000000e+00" cType="1" res="-3.6897618323564529e-02" rms="4.4960448145866394e-01" purity="3.1115886569023132e-01" nType="-99"/>
          </Node>
        </Node>
      </Node>
    </BinaryTree>
    <BinaryTree type="DecisionTree" boostWeight="1.0000000000000000e+00" itree="11">
      <Node pos="s" depth="0" NCoef="0" IVar="4" Cut="1.0949063301086426e+00" cType="1" res="2.3892267563496716e-05" rms="4.7649687528610229e-01" purity="5.0000000000000000e-01" nType="0">
        <Node pos="l" depth="1" NCoef="0" IVar="3" Cut="1.1048200130462646e+00" cType="1" res="-3.8971011526882648e-03" rms="4.7632491588592529e-01" purity="5.2663260698318481e-01" nType="0">
          <Node pos="l" depth="2" NCoef="0" IVar="6" Cut="1.0473226308822632e+00" cType="1" res="-1.0070479474961758e-02" rms="4.8016566038131714e-01" purity="5.4746764898300171e-01" nType="0">
            <Node pos="l" depth="3" NCoef="0" IVar="-1" Cut="0.0000000000000000e+00" cType="1" res="-9.8144859075546265e-03" rms="4.7971987724304199e-01" purity="5.4621922969818115e-01" nType="-99"/>
            <Node pos="r" depth="3" NCoef="0" IVar="-1" Cut="0.0000000000000000e+00" cType="1" res="-4.8551537096500397e-02" rms="4.8090836405754089e-01" purity="5.5017668008804321e-01" nType="-99"/>
          </Node>
          <Node pos="r" depth="2" NCoef="0" IVar="4" Cut="6.3167959451675415e-01" cType="1" res="4.0131211280822754e-03" rms="4.7123968601226807e-01" purity="4.9993586540222168e-01" nType="0">
            <Node pos="l" depth="3" NCoef="0" IVar="-1" Cut="0.0000000000000000e+00" cType="1" res="6.0776639729738235e-02" rms="4.7696915268898010e-01" purity="5.4692602157592773e-01" nType="-99"/>
            <Node pos="r" depth="3" NCoef="0" IVar="-1" Cut="0.0000000000000000e+00" cType="1" res="-1.2100145220756531e-02" rms="4.6854767203330994e-01" purity="4.8072308301925659e-01" nType="-99"/>
          </Node>
        </Node>
        <Node pos="r" depth="1" NCoef="0" IVar="3" Cut="5.8063519001007080e-01" cType="1" res="4.5313015580177307e-03" rms="4.7665461897850037e-01" purity="4.6938422322273254e-01" nType="0">
          <Node pos="l" depth="2" NCoef="0" IVar="-1" Cut="0.0000000000000000e+00" cType="1" res="7.2880186140537262e-02" rms="4.6922153234481812e-01" purity="5.7396459579467773e-01" nType="-99"/>
          <Node pos="r" depth="2" NCoef="0" IVar="1" Cut="-5.9288966655731201e-01" cType="1" res="1.4221552992239594e-03" rms="4.7735330462455750e-01" purity="4.5800444483757019e-01" nType="0">
            <Node pos="l" depth="3" NCoef="0" IVar="-1" Cut="0.0000000000000000e+00" cType="1" res="-2.1047282963991165e-02" rms="4.7427123785018921e-01" purity="4.2987763881683350e-01" nType="-99"/>
            <Node pos="r" depth="3" NCoef="0" IVar="-1" Cut="0.0000000000000000e+00" cType="1" res="1.5305431559681892e-02" rms="4.7881650924682617e-01" purity="4.7228279709815979e-01" nType="-99"/>
          </Node>
        </Node>
      </Node>
    </BinaryTree>
    <BinaryTree type="DecisionTree" boostWeight="1.0000000000000000e+00" itree="12">
      <Node pos="s" depth="0" NCoef="0" IVar="6" Cut="4.4879770278930664e-01" cType="1" res="2.9752596674370579e-05" rms="4.7631791234016418e-01" purity="5.0000000000000000e-01" nType="0">
        <Node pos="l" depth="1" NCoef="0" IVar="5" Cut="-1.4970709383487701e-01" cType="1" res="-3.7711693439632654e-03" rms="4.7564595937728882e-01" purity="4.9672403931617737e-01" nType="0">
          <Node pos="l" depth="2" NCoef="0" IVar="5" Cut="-2.1443159580230713e+00" cType="1" res="-1.5775239095091820e-02" rms="4.7626122832298279e-01" purity="4.5772472023963928e-01" nType="0">
            <Node pos="l" depth="3" NCoef="0" IVar="-1" Cut="0.0000000000000000e+00" cType="1" res="2.5523111224174500e-02" rms="4.8103162646293640e-01" purity="5.1808971166610718e-01" nType="-99"/>
            <Node pos="r" depth="3" NCoef="0" IVar="-1" Cut="0.0000000000000000e+00" cType="1" res="-6.8071119487285614e-02" rms="4.7288373112678528e-01" purity="4.2405641078948975e-01" nType="-99"/>
          </Node>
          <Node pos="r" depth="2" NCoef="0" IVar="6" Cut="1.0679699480533600e-01" cType="1" res="4.3505923822522163e-03" rms="4.7505721449851990e-01" purity="5.2311027050018311e-01" nType="0">
            <Node pos="l" depth="3" NCoef="0" IVar="-1" Cut="0.0000000000000000e+00" cType="1" res="1.9178943708539009e-02" rms="4.7538754343986511e-01" purity="5.2890378236770630e-01" nType="-99"/>
            <Node pos="r" depth="3" NCoef="0" IVar="-1" Cut="0.0000000000000000e+00" cType="1" res="-8.8481210172176361e-02" rms="4.6930027008056641e-01" purity="4.6195998787879944e-01" nType="-99"/>
          </Node>
        </Node>
        <Node pos="r" depth="1" NCoef="0" IVar="5" Cut="-4.4870752096176147e-01" cType="1" res="5.2727628499269485e-03" rms="4.7719353437423706e-01" purity="5.0451892614364624e-01" nType="0">
          <Node pos="l" depth="2" NCoef="0" IVar="5" Cut="-2.2438151836395264e+00" cType="1" res="1.7363170161843300e-02" rms="4.7812020778656006e-01" purity="5.5089932680130005e-01" nType="0">
            <Node pos="l" depth="3" NCoef="0" IVar="-1" Cut="0.0000000000000000e+00" cType="1" res="-4.3038345873355865e-02" rms="4.7814089059829712e-01" purity="5.5616128444671631e-01" nType="-99"/>
            <Node pos="r" depth="3" NCoef="0" IVar="-1" Cut="0.0000000000000000e+00" cType="1" res="7.0259883999824524e-02" rms="4.7731655836105347e-01" purity="5.4878079891204834e-01" nType="-99"/>
          </Node>
          <Node pos="r" depth="2" NCoef="0" IVar="6" Cut="2.7569079399108887e+00" cType="1" res="-6.8289972841739655e-03" rms="4.7595673799514771e-01" purity="4.5809495449066162e-01" nType="0">
            <Node pos="l" depth="3" NCoef="0" IVar="-1" Cut="0.0000000000000000e+00" cType="1" res="-3.4895401448011398e-02" rms="4.7589498758316040e-01" purity="4.3864178657531738e-01" nType="-99"/>
            <Node pos="r" depth="3" NCoef="0" IVar="-1" Cut="0.0000000000000000e+00" cType="1" res="7.9923003911972046e-02" rms="4.7389566898345947e-01" purity="5.5020105838775635e-01" nType="-99"/>
          </Node>
        </Node>
      </Node>
    </BinaryTree>
    <BinaryTree type="DecisionTree" boostWeight="1.0000000000000000e+00" itree="13">
      <Node pos="s" depth="0" NCoef="0" IVar="6" Cut="2.8423855304718018e+00" cType="1" res="8.3615204857778735e-06" rms="4.7578126192092896e-01" purity="5.0000000000000000e-01" nType="0">
        <Node pos="l" depth="1" NCoef="0" IVar="2" Cut="1.0137678527832031e+02" cType="1" res="1.2796527007594705e-03" rms="4.7566971182823181e-01" purity="4.9826616048812866e-01" nType="0">
          <Node pos="l" depth="2" NCoef="0" IVar="2" Cut="6.0248802185058594e+01" cType="1" res="6.0161431320011616e-03" rms="4.8291265964508057e-01" purity="5.6202918291091919e-01" nType="0">
            <Node pos="l" depth="3" NCoef="0" IVar="-1" Cut="0.0000000000000000e+00" cType="1" res="4.8510342836380005e-02" rms="4.8543432354927063e-01" purity="5.6317371129989624e-01" nType="-99"/>
            <Node pos="r" depth="3" NCoef="0" IVar="-1" Cut="0.0000000000000000e+00" cType="1" res="-1.0860318318009377e-02" rms="4.8093023896217346e-01" purity="5.6127631664276123e-01" nType="-99"/>
          </Node>
          <Node pos="r" depth="2" NCoef="0" IVar="5" Cut="2.5430035591125488e+00" cType="1" res="-3.2502296380698681e-03" rms="4.6859320998191833e-01" purity="4.3728452920913696e-01" nType="0">
            <Node pos="l" depth="3" NCoef="0" IVar="-1" Cut="0.0000000000000000e+00" cType="1" res="-1.5771660953760147e-02" rms="4.6849587559700012e-01" purity="4.2905423045158386e-01" nType="-99"/>
            <Node pos="r" depth="3" NCoef="0" IVar="-1" Cut="0.0000000000000000e+00" cType="1" res="6.6245086491107941e-02" rms="4.6822777390480042e-01" purity="5.0867444276809692e-01" nType="-99"/>
          </Node>
        </Node>
        <Node pos="r" depth="1" NCoef="0" IVar="-1" Cut="0.0000000000000000e+00" cType="1" res="-5.9572733938694000e-02" rms="4.7733515501022339e-01" purity="5.3635519742965698e-01" nType="-99"/>
      </Node>
    </BinaryTree>
    <BinaryTree type="DecisionTree" boostWeight="1.0000000000000000e+00" itree="14">
      <Node pos="s" depth="0" NCoef="0" IVar="5" Cut="1.3463276624679565e+00" cType="1" res="2.4045739337452687e-05" rms="4.7556388378143311e-01" purity="5.0000000000000000e-01" nType="0">
        <Node pos="l" depth="1" NCoef="0" IVar="6" Cut="-1.3463931083679199e+00" cType="1" res="3.0265636742115021e-03" rms="4.7501644492149353e-01" purity="4.8810568451881409e-01" nType="0">
          <Node pos="l" depth="2" NCoef="0" IVar="5" Cut="7.0508062839508057e-01" cType="1" res="1.5921639278531075e-02" rms="4.7532552480697632e-01" purity="4.9865061044692993e-01" nType="0">
            <Node pos="l" depth="3" NCoef="0" IVar="-1" Cut="0.0000000000000000e+00" cType="1" res="1.2887165881693363e-02" rms="4.7458407282829285e-01" purity="4.7974407672882080e-01" nType="-99"/>
            <Node pos="r" depth="3" NCoef="0" IVar="-1" Cut="0.0000000000000000e+00" cType="1" res="1.2201898545026779e-01" rms="4.7615903615951538e-01" purity="5.7250231504440308e-01" nType="-99"/>
          </Node>
          <Node pos="r" depth="2" NCoef="0" IVar="5" Cut="-2.2865896224975586e+00" cType="1" res="-1.7013172619044781e-03" rms="4.7481533885002136e-01" purity="4.8423948884010315e-01" nType="0">
            <Node pos="l" depth="3" NCoef="0" IVar="-1" Cut="0.0000000000000000e+00" cType="1" res="3.1610034406185150e-02" rms="4.7816830873489380e-01" purity="5.5225419998168945e-01" nType="-99"/>
            <Node pos="r" depth="3" NCoef="0" IVar="-1" Cut="0.0000000000000000e+00" cType="1" res="-1.2800233438611031e-02" rms="4.7387009859085083e-01" purity="4.6690508723258972e-01" nType="-99"/>
          </Node>
        </Node>
        <Node pos="r" depth="1" NCoef="0" IVar="6" Cut="-1.6452620029449463e+00" cType="1" res="-8.1589519977569580e-03" rms="4.7695675492286682e-01" purity="5.3241652250289917e-01" nType="0">
          <Node pos="l" depth="2" NCoef="0" IVar="5" Cut="2.1155295372009277e+00" cType="1" res="-4.1976783424615860e-02" rms="4.7527658939361572e-01" purity="5.7649898529052734e-01" nType="0">
            <Node pos="l" depth="3" NCoef="0" IVar="-1" Cut="0.0000000000000000e+00" cType="1" res="-1.3679816620424390e-03" rms="4.7194170951843262e-01" purity="5.8058118820190430e-01" nType="-99"/>
            <Node pos="r" depth="3" NCoef="0" IVar="-1" Cut="0.0000000000000000e+00" cType="1" res="-2.0087194442749023e-01" rms="4.7501116991043091e-01" purity="5.7244193553924561e-01" nType="-99"/>
          </Node>
          <Node pos="r" depth="2" NCoef="0" IVar="6" Cut="1.7739131450653076e+00" cType="1" res="1.6026053344830871e-03" rms="4.7699493169784546e-01" purity="5.1969206333160400e-01" nType="0">
            <Node pos="l" depth="3" NCoef="0" IVar="-1" Cut="0.0000000000000000e+00" cType="1" res="2.5839740410447121e-02" rms="4.7603800892829895e-01" purity="5.2769827842712402e-01" nType="-99"/>
            <Node pos="r" depth="3" NCoef="0" IVar="-1" Cut="0.0000000000000000e+00" cType="1" res="-9.9340647459030151e-02" rms="4.7877538204193115e-01" purity="4.8154518008232117e-01" nType="-99"/>
          </Node>
        </Node>
      </Node>
    </BinaryTree>
    <BinaryTree type="DecisionTree" boostWeight="1.0000000000000000e+00" itree="15">
      <Node pos="s" depth="0" NCoef="0" IVar="6" Cut="2.2439885139465332e+00" cType="1" res="1.6107367991935462e-04" rms="4.7506394982337952e-01" purity="5.0000000000000000e-01" nType="0">
        <Node pos="l" depth="1" NCoef="0" IVar="3" Cut="7.6131045818328857e-01" cType="1" res="-2.2239899262785912e-03" rms="4.7400510311126709e-01" purity="4.9454694986343384e-01" nType="0">
          <Node pos="l" depth="2" NCoef="0" IVar="6" Cut="-2.1155688762664795e+00" cType="1" res="-1.1024188250303268e-02" rms="4.7620573639869690e-01" purity="5.4745870828628540e-01" nType="0">
            <Node pos="l" depth="3" NCoef="0" IVar="-1" Cut="0.0000000000000000e+00" cType="1" res="5.5720876902341843e-02" rms="4.7593864798545837e-01" purity="5.7563287019729614e-01" nType="-99"/>
            <Node pos="r" depth="3" NCoef="0" IVar="-1" Cut="0.0000000000000000e+00" cType="1" res="-4.2274408042430878e-02" rms="4.7589281201362610e-01" purity="5.4134422540664673e-01" nType="-99"/>
          </Node>
          <Node pos="r" depth="2" NCoef="0" IVar="0" Cut="7.1902954578399658e-01" cType="1" res="8.8835076894611120e-04" rms="4.7318518161773682e-01" purity="4.7583383321762085e-01" nType="0">
            <Node pos="l" depth="3" NCoef="0" IVar="-1" Cut="0.0000000000000000e+00" cType="1" res="-3.7959668785333633e-02" rms="4.7380921244621277e-01" purity="5.2554482221603394e-01" nType="-99"/>
            <Node pos="r" depth="3" NCoef="0" IVar="-1" Cut="0.0000000000000000e+00" cType="1" res="1.0733430273830891e-02" rms="4.7296148538589478e-01" purity="4.6533736586570740e-01" nType="-99"/>
          </Node>
        </Node>
        <Node pos="r" depth="1" NCoef="0" IVar="5" Cut="-1.3460043668746948e+00" cType="1" res="1.5017473138868809e-02" rms="4.8134097456932068e-01" purity="5.3396648168563843e-01" nType="0">
          <Node pos="l" depth="2" NCoef="0" IVar="-1" Cut="0.0000000000000000e+00" cType="1" res="-1.7145772278308868e-01" rms="4.8229154944419861e-01" purity="5.3243052959442139e-01" nType="-99"/>
          <Node pos="r" depth="2" NCoef="0" IVar="5" Cut="1.0044177770614624e+00" cType="1" res="4.1040778160095215e-02" rms="4.7787943482398987e-01" purity="5.3440308570861816e-01" nType="0">
            <Node pos="l" depth="3" NCoef="0" IVar="-1" Cut="0.0000000000000000e+00" cType="1" res="1.2317550182342529e-01" rms="4.7683152556419373e-01" purity="5.4687923192977905e-01" nType="-99"/>
            <Node pos="r" depth="3" NCoef="0" IVar="-1" Cut="0.0000000000000000e+00" cType="1" res="1.0187054052948952e-02" rms="4.7850582003593445e-01" purity="5.0370913743972778e-01" nType="-99"/>
          </Node>
        </Node>
      </Node>
    </BinaryTree>
    <BinaryTree type="DecisionTree" boostWeight="1.0000000000000000e+00" itree="16">
      <Node pos="s" depth="0" NCoef="0" IVar="2" Cut="1.0137678527832031e+02" cType="1" res="1.1245859786868095e-04" rms="4.7446632385253906e-01" purity="5.0000000000000000e-01" nType="0">
        <Node pos="l" depth="1" NCoef="0" IVar="1" Cut="1.7818777561187744e+00" cType="1" res="5.6135654449462891e-03" rms="4.8134392499923706e-01" purity="5.6526356935501099e-01" nType="0">
          <Node pos="l" depth="2" NCoef="0" IVar="3" Cut="1.9507856369018555e+00" cType="1" res="8.0580897629261017e-03" rms="4.8109072446823120e-01" purity="5.7216155529022217e-01" nType="0">
            <Node pos="l" depth="3" NCoef="0" IVar="-1" Cut="0.0000000000000000e+00" cType="1" res="1.2510297819972038e-02" rms="4.8090237379074097e-01" purity="5.8384114503860474e-01" nType="-99"/>
            <Node pos="r" depth="3" NCoef="0" IVar="-1" Cut="0.0000000000000000e+00" cType="1" res="9.2784695327281952e-02" rms="4.8263305425643921e-01" purity="4.0290182828903198e-01" nType="-99"/>
          </Node>
          <Node pos="r" depth="2" NCoef="0" IVar="-1" Cut="0.0000000000000000e+00" cType="1" res="-8.0309070646762848e-02" rms="4.8376497626304626e-01" purity="4.4289863109588623e-01" nType="-99"/>
        </Node>
        <Node pos="r" depth="1" NCoef="0" IVar="6" Cut="-1.9448132514953613e+00" cType="1" res="-5.1490981131792068e-03" rms="4.6773308515548706e-01" purity="4.3757838010787964e-01" nType="0">
          <Node pos="l" depth="2" NCoef="0" IVar="2" Cut="1.7750155639648438e+02" cType="1" res="-2.3607213050127029e-02" rms="4.7022715210914612e-01" purity="4.4922339916229248e-01" nType="0">
            <Node pos="l" depth="3" NCoef="0" IVar="-1" Cut="0.0000000000000000e+00" cType="1" res="-6.3997921533882618e-03" rms="4.8919206857681274e-01" purity="5.4113763570785522e-01" nType="-99"/>
            <Node pos="r" depth="3" NCoef="0" IVar="-1" Cut="0.0000000000000000e+00" cType="1" res="-1.4408808946609497e-01" rms="4.3326300382614136e-01" purity="2.9062780737876892e-01" nType="-99"/>
          </Node>
          <Node pos="r" depth="2" NCoef="0" IVar="5" Cut="1.6454728841781616e+00" cType="1" res="-1.1542198481038213e-03" rms="4.6709552407264709e-01" purity="4.3505802750587463e-01" nType="0">
            <Node pos="l" depth="3" NCoef="0" IVar="-1" Cut="0.0000000000000000e+00" cType="1" res="-1.3065109960734844e-02" rms="4.6591293811798096e-01" purity="4.1686612367630005e-01" nType="-99"/>
            <Node pos="r" depth="3" NCoef="0" IVar="-1" Cut="0.0000000000000000e+00" cType="1" res="2.9208432883024216e-02" rms="4.7039043903350830e-01" purity="4.9019318819046021e-01" nType="-99"/>
          </Node>
        </Node>
      </Node>
    </BinaryTree>
    <BinaryTree type="DecisionTree" boostWeight="1.0000000000000000e+00" itree="17">
      <Node pos="s" depth="0" NCoef="0" IVar="5" Cut="-1.3464192152023315e+00" cType="1" res="-1.0393098636996001e-04" rms="4.7421234846115112e-01" purity="5.0000000000000000e-01" nType="0">
        <Node pos="l" depth="1" NCoef="0" IVar="6" Cut="-4.4879770278930664e-01" cType="1" res="8.7556038051843643e-03" rms="4.7747245430946350e-01" purity="5.2380502223968506e-01" nType="0">
          <Node pos="l" depth="2" NCoef="0" IVar="2" Cut="6.7481849670410156e+01" cType="1" res="-2.1657960489392281e-02" rms="4.8124656081199646e-01" purity="4.7138682007789612e-01" nType="0">
            <Node pos="l" depth="3" NCoef="0" IVar="-1" Cut="0.0000000000000000e+00" cType="1" res="1.9126156345009804e-02" rms="4.9247899651527405e-01" purity="5.6204551458358765e-01" nType="-99"/>
            <Node pos="r" depth="3" NCoef="0" IVar="-1" Cut="0.0000000000000000e+00" cType="1" res="-1.0477392375469208e-01" rms="4.7038382291793823e-01" purity="3.9732784032821655e-01" nType="-99"/>
          </Node>
          <Node pos="r" depth="2" NCoef="0" IVar="6" Cut="1.0902546644210815e+00" cType="1" res="2.3005602881312370e-02" rms="4.7502437233924866e-01" purity="5.4836511611938477e-01" nType="0">
            <Node pos="l" depth="3" NCoef="0" IVar="-1" Cut="0.0000000000000000e+00" cType="1" res="1.0396839678287506e-01" rms="4.7344139218330383e-01" purity="5.4094469547271729e-01" nType="-99"/>
            <Node pos="r" depth="3" NCoef="0" IVar="-1" Cut="0.0000000000000000e+00" cType="1" res="-6.9490452297031879e-03" rms="4.7533419728279114e-01" purity="5.5635368824005127e-01" nType="-99"/>
          </Node>
        </Node>
        <Node pos="r" depth="1" NCoef="0" IVar="6" Cut="-1.6455916166305542e+00" cType="1" res="-3.3170054666697979e-03" rms="4.7298344969749451e-01" purity="4.9136662483215332e-01" nType="0">
          <Node pos="l" depth="2" NCoef="0" IVar="0" Cut="8.2529324293136597e-01" cType="1" res="7.9881306737661362e-03" rms="4.7060084342956543e-01" purity="5.3650921583175659e-01" nType="0">
            <Node pos="l" depth="3" NCoef="0" IVar="-1" Cut="0.0000000000000000e+00" cType="1" res="7.5335592031478882e-02" rms="4.6759948134422302e-01" purity="6.1742144823074341e-01" nType="-99"/>
            <Node pos="r" depth="3" NCoef="0" IVar="-1" Cut="0.0000000000000000e+00" cType="1" res="-1.2620612978935242e-03" rms="4.7128802537918091e-01" purity="5.0952947139739990e-01" nType="-99"/>
          </Node>
          <Node pos="r" depth="2" NCoef="0" IVar="6" Cut="1.3179299831390381e+00" cType="1" res="-7.1730618365108967e-03" rms="4.7373169660568237e-01" purity="4.7596904635429382e-01" nType="0">
            <Node pos="l" depth="3" NCoef="0" IVar="-1" Cut="0.0000000000000000e+00" cType="1" res="-3.3181499689817429e-02" rms="4.7286108136177063e-01" purity="4.5762395858764648e-01" nType="-99"/>
            <Node pos="r" depth="3" NCoef="0" IVar="-1" Cut="0.0000000000000000e+00" cType="1" res="1.2220787815749645e-02" rms="4.7491532564163208e-01" purity="5.0670045614242554e-01" nType="-99"/>
          </Node>
        </Node>
      </Node>
    </BinaryTree>
    <BinaryTree type="DecisionTree" boostWeight="1.0000000000000000e+00" itree="18">
      <Node pos="s" depth="0" NCoef="0" IVar="0" Cut="1.1901675462722778e+00" cType="1" res="8.2549158832989633e-06" rms="4.7367483377456665e-01" purity="5.0000000000000000e-01" nType="0">
        <Node pos="l" depth="1" NCoef="0" IVar="2" Cut="1.6041180419921875e+02" cType="1" res="-5.2798422984778881e-03" rms="4.7303733229637146e-01" purity="5.4724818468093872e-01" nType="0">
          <Node pos="l" depth="2" NCoef="0" IVar="5" Cut="1.9447624683380127e+00" cType="1" res="7.8009348362684250e-04" rms="4.7562909126281738e-01" purity="5.8209365606307983e-01" nType="0">
            <Node pos="l" depth="3" NCoef="0" IVar="-1" Cut="0.0000000000000000e+00" cType="1" res="-6.3781137578189373e-03" rms="4.7697868943214417e-01" purity="5.6864774227142334e-01" nType="-99"/>
            <Node pos="r" depth="3" NCoef="0" IVar="-1" Cut="0.0000000000000000e+00" cType="1" res="3.8521319627761841e-02" rms="4.6928286552429199e-01" purity="6.4136761426925659e-01" nType="-99"/>
          </Node>
          <Node pos="r" depth="2" NCoef="0" IVar="3" Cut="9.4860506057739258e-01" cType="1" res="-3.4864131361246109e-02" rms="4.5902791619300842e-01" purity="3.7713465094566345e-01" nType="0">
            <Node pos="l" depth="3" NCoef="0" IVar="-1" Cut="0.0000000000000000e+00" cType="1" res="-3.4748349338769913e-02" rms="4.7797513008117676e-01" purity="4.3786016106605530e-01" nType="-99"/>
            <Node pos="r" depth="3" NCoef="0" IVar="-1" Cut="0.0000000000000000e+00" cType="1" res="-1.3696670532226562e-01" rms="4.3467098474502563e-01" purity="3.0580642819404602e-01" nType="-99"/>
          </Node>
        </Node>
        <Node pos="r" depth="1" NCoef="0" IVar="3" Cut="1.6644122600555420e+00" cType="1" res="4.2141638696193695e-03" rms="4.7413915395736694e-01" purity="4.6242097020149231e-01" nType="0">
          <Node pos="l" depth="2" NCoef="0" IVar="2" Cut="1.8777542114257812e+02" cType="1" res="2.9808041290380061e-04" rms="4.7767016291618347e-01" purity="4.8230412602424622e-01" nType="0">
            <Node pos="l" depth="3" NCoef="0" IVar="-1" Cut="0.0000000000000000e+00" cType="1" res="-1.1189514771103859e-02" rms="4.8611602187156677e-01" purity="5.2931612730026245e-01" nType="-99"/>
            <Node pos="r" depth="3" NCoef="0" IVar="-1" Cut="0.0000000000000000e+00" cType="1" res="5.5191341787576675e-02" rms="4.4446790218353271e-01" purity="3.0853915214538574e-01" nType="-99"/>
          </Node>
          <Node pos="r" depth="2" NCoef="0" IVar="0" Cut="1.4981631040573120e+00" cType="1" res="2.1542167291045189e-02" rms="4.5778661966323853e-01" purity="3.7444117665290833e-01" nType="0">
            <Node pos="l" depth="3" NCoef="0" IVar="-1" Cut="0.0000000000000000e+00" cType="1" res="1.7879518866539001e-01" rms="4.7966432571411133e-01" purity="4.7473967075347900e-01" nType="-99"/>
            <Node pos="r" depth="3" NCoef="0" IVar="-1" Cut="0.0000000000000000e+00" cType="1" res="-1.4072126941755414e-03" rms="4.4696128368377686e-01" purity="3.3501058816909790e-01" nType="-99"/>
          </Node>
        </Node>
      </Node>
    </BinaryTree>
    <BinaryTree type="DecisionTree" boostWeight="1.0000000000000000e+00" itree="19">
      <Node pos="s" depth="0" NCoef="0" IVar="3" Cut="1.8449968099594116e+00" cType="1" res="-1.4363008085638285e-04" rms="4.7328147292137146e-01" purity="5.0000000000000000e-01" nType="0">
        <Node pos="l" depth="1" NCoef="0" IVar="1" Cut="-5.9288966655731201e-01" cType="1" res="1.9404928898438811e-03" rms="4.7584298253059387e-01" purity="5.1749658584594727e-01" nType="0">
          <Node pos="l" depth="2" NCoef="0" IVar="5" Cut="1.9446066617965698e+00" cType="1" res="-4.3434519320726395e-03" rms="4.7560903429985046e-01" purity="4.9066489934921265e-01" nType="0">
            <Node pos="l" depth="3" NCoef="0" IVar="-1" Cut="0.0000000000000000e+00" cType="1" res="9.2110567493364215e-04" rms="4.7598659992218018e-01" purity="4.8489040136337280e-01" nType="-99"/>
            <Node pos="r" depth="3" NCoef="0" IVar="-1" Cut="0.0000000000000000e+00" cType="1" res="-5.7439070194959641e-02" rms="4.7333723306655884e-01" purity="5.1643711328506470e-01" nType="-99"/>
          </Node>
          <Node pos="r" depth="2" NCoef="0" IVar="4" Cut="7.4463361501693726e-01" cType="1" res="4.9258042126893997e-03" rms="4.7592499852180481e-01" purity="5.3024345636367798e-01" nType="0">
            <Node pos="l" depth="3" NCoef="0" IVar="-1" Cut="0.0000000000000000e+00" cType="1" res="-1.5563581138849258e-02" rms="4.7539696097373962e-01" purity="5.6624251604080200e-01" nType="-99"/>
            <Node pos="r" depth="3" NCoef="0" IVar="-1" Cut="0.0000000000000000e+00" cType="1" res="1.9981531426310539e-02" rms="4.7604009509086609e-01" purity="5.1763451099395752e-01" nType="-99"/>
          </Node>
        </Node>
        <Node pos="r" depth="1" NCoef="0" IVar="2" Cut="1.5501177978515625e+02" cType="1" res="-1.9182592630386353e-02" rms="4.4875797629356384e-01" purity="3.4016487002372742e-01" nType="0">
          <Node pos="l" depth="2" NCoef="0" IVar="2" Cut="1.0166679382324219e+02" cType="1" res="4.6197073534131050e-03" rms="4.8163568973541260e-01" purity="4.1572365164756775e-01" nType="0">
            <Node pos="l" depth="3" NCoef="0" IVar="-1" Cut="0.0000000000000000e+00" cType="1" res="-6.2678225338459015e-02" rms="4.7611582279205322e-01" purity="4.0279492735862732e-01" nType="-99"/>
            <Node pos="r" depth="3" NCoef="0" IVar="-1" Cut="0.0000000000000000e+00" cType="1" res="1.3868133723735809e-01" rms="4.8574811220169067e-01" purity="4.3762248754501343e-01" nType="-99"/>
          </Node>
          <Node pos="r" depth="2" NCoef="0" IVar="-1" Cut="0.0000000000000000e+00" cType="1" res="-2.1921181678771973e-01" rms="3.5908722877502441e-01" purity="1.7134265601634979e-01" nType="-99"/>
        </Node>
      </Node>
    </BinaryTree>
    <BinaryTree type="DecisionTree" boostWeight="1.0000000000000000e+00" itree="20">
      <Node pos="s" depth="0" NCoef="0" IVar="0" Cut="1.7822167873382568e+00" cType="1" res="-2.4530317750759423e-04" rms="4.7286516427993774e-01" purity="5.0000000000000000e-01" nType="0">
        <Node pos="l" depth="1" NCoef="0" IVar="3" Cut="5.6889444589614868e-01" cType="1" res="-2.4536740966141224e-03" rms="4.7478410601615906e-01" purity="5.2654904127120972e-01" nType="0">
          <Node pos="l" depth="2" NCoef="0" IVar="3" Cut="5.0455558300018311e-01" cType="1" res="1.1326676234602928e-02" rms="4.7097405791282654e-01" purity="6.0279989242553711e-01" nType="0">
            <Node pos="l" depth="3" NCoef="0" IVar="-1" Cut="0.0000000000000000e+00" cType="1" res="7.7799297869205475e-02" rms="4.6528747677803040e-01" purity="6.3239353895187378e-01" nType="-99"/>
            <Node pos="r" depth="3" NCoef="0" IVar="-1" Cut="0.0000000000000000e+00" cType="1" res="-3.2107084989547729e-02" rms="4.7586256265640259e-01" purity="5.7009738683700562e-01" nType="-99"/>
          </Node>
          <Node pos="r" depth="2" NCoef="0" IVar="6" Cut="-4.4879770278930664e-01" cType="1" res="-4.0308162569999695e-03" rms="4.7519272565841675e-01" purity="5.1782220602035522e-01" nType="0">
            <Node pos="l" depth="3" NCoef="0" IVar="-1" Cut="0.0000000000000000e+00" cType="1" res="2.0724448841065168e-03" rms="4.7527572512626648e-01" purity="5.2860242128372192e-01" nType="-99"/>
            <Node pos="r" depth="3" NCoef="0" IVar="-1" Cut="0.0000000000000000e+00" cType="1" res="-1.6838664188981056e-02" rms="4.7509887814521790e-01" purity="5.0990891456604004e-01" nType="-99"/>
          </Node>
        </Node>
        <Node pos="r" depth="1" NCoef="0" IVar="2" Cut="1.0140955352783203e+02" cType="1" res="7.0075034163892269e-03" rms="4.6643388271331787e-01" purity="4.1280683875083923e-01" nType="0">
          <Node pos="l" depth="2" NCoef="0" IVar="0" Cut="2.1205356121063232e+00" cType="1" res="2.1661721169948578e-02" rms="4.8769715428352356e-01" purity="4.9767377972602844e-01" nType="0">
            <Node pos="l" depth="3" NCoef="0" IVar="-1" Cut="0.0000000000000000e+00" cType="1" res="7.2615474462509155e-02" rms="4.9147200584411621e-01" purity="5.2603179216384888e-01" nType="-99"/>
            <Node pos="r" depth="3" NCoef="0" IVar="-1" Cut="0.0000000000000000e+00" cType="1" res="-1.4381054788827896e-03" rms="4.8006045818328857e-01" purity="4.4693726301193237e-01" nType="-99"/>
          </Node>
          <Node pos="r" depth="2" NCoef="0" IVar="5" Cut="1.4979189634323120e-01" cType="1" res="-2.0686234347522259e-03" rms="4.5252603292465210e-01" purity="3.6024427413940430e-01" nType="0">
            <Node pos="l" depth="3" NCoef="0" IVar="-1" Cut="0.0000000000000000e+00" cType="1" res="3.0206754803657532e-02" rms="4.5874726772308350e-01" purity="3.7194699048995972e-01" nType="-99"/>
            <Node pos="r" depth="3" NCoef="0" IVar="-1" Cut="0.0000000000000000e+00" cType="1" res="-4.6636529266834259e-02" rms="4.4456225633621216e-01" purity="3.4657320380210876e-01" nType="-99"/>
          </Node>
        </Node>
      </Node>
    </BinaryTree>
    <BinaryTree type="DecisionTree" boostWeight="1.0000000000000000e+00" itree="21">
      <Node pos="s" depth="0" NCoef="0" IVar="5" Cut="-2.2440016269683838e+00" cType="1" res="1.0604671842884272e-05" rms="4.7268068790435791e-01" purity="5.0000000000000000e-01" nType="0">
        <Node pos="l" depth="1" NCoef="0" IVar="0" Cut="1.5486936569213867e+00" cType="1" res="-9.7016058862209320e-03" rms="4.7573113441467285e-01" purity="5.3665959835052490e-01" nType="0">
          <Node pos="l" depth="2" NCoef="0" IVar="5" Cut="-2.7569129467010498e+00" cType="1" res="6.3485214486718178e-03" rms="4.7586932778358459e-01" purity="5.8138811588287354e-01" nType="0">
            <Node pos="l" depth="3" NCoef="0" IVar="-1" Cut="0.0000000000000000e+00" cType="1" res="4.9355342984199524e-02" rms="4.7718763351440430e-01" purity="5.9473443031311035e-01" nType="-99"/>
            <Node pos="r" depth="3" NCoef="0" IVar="-1" Cut="0.0000000000000000e+00" cType="1" res="-1.4503060840070248e-02" rms="4.7440287470817566e-01" purity="5.7052594423294067e-01" nType="-99"/>
          </Node>
          <Node pos="r" depth="2" NCoef="0" IVar="-1" Cut="0.0000000000000000e+00" cType="1" res="-8.8488161563873291e-02" rms="4.7400918602943420e-01" purity="4.5278942584991455e-01" nType="-99"/>
        </Node>
        <Node pos="r" depth="1" NCoef="0" IVar="5" Cut="2.1157040596008301e+00" cType="1" res="1.5540502499789000e-03" rms="4.7217568755149841e-01" purity="4.9417412281036377e-01" nType="0">
          <Node pos="l" depth="2" NCoef="0" IVar="6" Cut="1.9447900056838989e+00" cType="1" res="-6.3345720991492271e-04" rms="4.7191953659057617e-01" purity="4.8119890689849854e-01" nType="0">
            <Node pos="l" depth="3" NCoef="0" IVar="-1" Cut="0.0000000000000000e+00" cType="1" res="-8.6909020319581032e-03" rms="4.7092166543006897e-01" purity="4.6592548489570618e-01" nType="-99"/>
            <Node pos="r" depth="3" NCoef="0" IVar="-1" Cut="0.0000000000000000e+00" cType="1" res="2.5245621800422668e-02" rms="4.7541907429695129e-01" purity="5.3798997402191162e-01" nType="-99"/>
          </Node>
          <Node pos="r" depth="2" NCoef="0" IVar="6" Cut="-1.0467587709426880e+00" cType="1" res="1.1240592226386070e-02" rms="4.7318682074546814e-01" purity="5.5162990093231201e-01" nType="0">
            <Node pos="l" depth="3" NCoef="0" IVar="-1" Cut="0.0000000000000000e+00" cType="1" res="-4.0136910974979401e-02" rms="4.7245430946350098e-01" purity="5.8903527259826660e-01" nType="-99"/>
            <Node pos="r" depth="3" NCoef="0" IVar="-1" Cut="0.0000000000000000e+00" cType="1" res="5.4553121328353882e-02" rms="4.7295573353767395e-01" purity="5.3465390205383301e-01" nType="-99"/>
          </Node>
        </Node>
      </Node>
    </BinaryTree>
    <BinaryTree type="DecisionTree" boostWeight="1.0000000000000000e+00" itree="22">
      <Node pos="s" depth="0" NCoef="0" IVar="6" Cut="1.9447900056838989e+00" cType="1" res="2.2993699531070888e-05" rms="4.7246429324150085e-01" purity="5.0000000000000000e-01" nType="0">
        <Node pos="l" depth="1" NCoef="0" IVar="0" Cut="9.5334786176681519e-01" cType="1" res="2.3259168956428766e-03" rms="4.7149419784545898e-01" purity="4.9373584985733032e-01" nType="0">
          <Node pos="l" depth="2" NCoef="0" IVar="4" Cut="1.4047725200653076e+00" cType="1" res="-6.2889815308153629e-03" rms="4.7123390436172485e-01" purity="5.4336237907409668e-01" nType="0">
            <Node pos="l" depth="3" NCoef="0" IVar="-1" Cut="0.0000000000000000e+00" cType="1" res="3.1682709231972694e-04" rms="4.7230756282806396e-01" purity="5.6449043750762939e-01" nType="-99"/>
            <Node pos="r" depth="3" NCoef="0" IVar="-1" Cut="0.0000000000000000e+00" cType="1" res="-7.1262665092945099e-02" rms="4.6605446934700012e-01" purity="4.5922780036926270e-01" nType="-99"/>
          </Node>
          <Node pos="r" depth="2" NCoef="0" IVar="6" Cut="7.0126852951943874e-03" cType="1" res="6.0901120305061340e-03" rms="4.7155845165252686e-01" purity="4.7205200791358948e-01" nType="0">
            <Node pos="l" depth="3" NCoef="0" IVar="-1" Cut="0.0000000000000000e+00" cType="1" res="4.5763482339680195e-03" rms="4.7138437628746033e-01" purity="4.7332629561424255e-01" nType="-99"/>
            <Node pos="r" depth="3" NCoef="0" IVar="-1" Cut="0.0000000000000000e+00" cType="1" res="2.7936093509197235e-02" rms="4.7175857424736023e-01" purity="4.7007215023040771e-01" nType="-99"/>
          </Node>
        </Node>
        <Node pos="r" depth="1" NCoef="0" IVar="0" Cut="1.0610177516937256e+00" cType="1" res="-1.0266252793371677e-02" rms="4.7663867473602295e-01" purity="5.2798771858215332e-01" nType="0">
          <Node pos="l" depth="2" NCoef="0" IVar="5" Cut="-1.4850112795829773e-01" cType="1" res="5.9976107440888882e-03" rms="4.6958199143409729e-01" purity="5.9534901380538940e-01" nType="0">
            <Node pos="l" depth="3" NCoef="0" IVar="-1" Cut="0.0000000000000000e+00" cType="1" res="4.7305837273597717e-02" rms="4.6605393290519714e-01" purity="6.2643152475357056e-01" nType="-99"/>
            <Node pos="r" depth="3" NCoef="0" IVar="-1" Cut="0.0000000000000000e+00" cType="1" res="-2.6110945269465446e-02" rms="4.7314053773880005e-01" purity="5.5823695659637451e-01" nType="-99"/>
          </Node>
          <Node pos="r" depth="2" NCoef="0" IVar="3" Cut="7.5058066844940186e-01" cType="1" res="-2.0165467634797096e-02" rms="4.8061373829841614e-01" purity="4.8698738217353821e-01" nType="0">
            <Node pos="l" depth="3" NCoef="0" IVar="-1" Cut="0.0000000000000000e+00" cType="1" res="2.2115524858236313e-02" rms="4.7510272264480591e-01" purity="5.4914283752441406e-01" nType="-99"/>
            <Node pos="r" depth="3" NCoef="0" IVar="-1" Cut="0.0000000000000000e+00" cType="1" res="-6.6598534584045410e-02" rms="4.8195236921310425e-01" purity="4.6722382307052612e-01" nType="-99"/>
          </Node>
        </Node>
      </Node>
    </BinaryTree>
    <BinaryTree type="DecisionTree" boostWeight="1.0000000000000000e+00" itree="23">
      <Node pos="s" depth="0" NCoef="0" IVar="4" Cut="1.6160781383514404e+00" cType="1" res="3.9848564483691007e-06" rms="4.7225138545036316e-01" purity="5.0000000000000000e-01" nType="0">
        <Node pos="l" depth="1" NCoef="0" IVar="3" Cut="5.8063519001007080e-01" cType="1" res="-1.9307428738102317e-03" rms="4.7287851572036743e-01" purity="5.1372402906417847e-01" nType="0">
          <Node pos="l" depth="2" NCoef="0" IVar="2" Cut="1.5339877319335938e+02" cType="1" res="-1.3197679072618484e-02" rms="4.6989366412162781e-01" purity="5.7508462667465210e-01" nType="0">
            <Node pos="l" depth="3" NCoef="0" IVar="-1" Cut="0.0000000000000000e+00" cType="1" res="5.9449829859659076e-04" rms="4.6831965446472168e-01" purity="6.3510543107986450e-01" nType="-99"/>
            <Node pos="r" depth="3" NCoef="0" IVar="-1" Cut="0.0000000000000000e+00" cType="1" res="-1.0313203930854797e-01" rms="4.7211390733718872e-01" purity="4.2739102244377136e-01" nType="-99"/>
          </Node>
          <Node pos="r" depth="2" NCoef="0" IVar="2" Cut="1.8774429321289062e+02" cType="1" res="-5.3783284965902567e-04" rms="4.7322756052017212e-01" purity="5.0613814592361450e-01" nType="0">
            <Node pos="l" depth="3" NCoef="0" IVar="-1" Cut="0.0000000000000000e+00" cType="1" res="-6.2655997462570667e-03" rms="4.8068180680274963e-01" purity="5.4810529947280884e-01" nType="-99"/>
            <Node pos="r" depth="3" NCoef="0" IVar="-1" Cut="0.0000000000000000e+00" cType="1" res="2.9741151258349419e-02" rms="4.3449127674102783e-01" purity="2.9957389831542969e-01" nType="-99"/>
          </Node>
        </Node>
        <Node pos="r" depth="1" NCoef="0" IVar="1" Cut="-1.5471308231353760e+00" cType="1" res="1.0177313350141048e-02" rms="4.6880877017974854e-01" purity="4.2783522605895996e-01" nType="0">
          <Node pos="l" depth="2" NCoef="0" IVar="-1" Cut="0.0000000000000000e+00" cType="1" res="-4.9467805773019791e-02" rms="4.5891216397285461e-01" purity="3.4883657097816467e-01" nType="-99"/>
          <Node pos="r" depth="2" NCoef="0" IVar="6" Cut="-7.4773168563842773e-01" cType="1" res="1.6038291156291962e-02" rms="4.7044825553894043e-01" purity="4.4292771816253662e-01" nType="0">
            <Node pos="l" depth="3" NCoef="0" IVar="-1" Cut="0.0000000000000000e+00" cType="1" res="8.5718654096126556e-02" rms="4.7672447562217712e-01" purity="4.7651258111000061e-01" nType="-99"/>
            <Node pos="r" depth="3" NCoef="0" IVar="-1" Cut="0.0000000000000000e+00" cType="1" res="9.7060659900307655e-03" rms="4.6644437313079834e-01" purity="4.2391455173492432e-01" nType="-99"/>
          </Node>
        </Node>
      </Node>
    </BinaryTree>
    <BinaryTree type="DecisionTree" boostWeight="1.0000000000000000e+00" itree="24">
      <Node pos="s" depth="0" NCoef="0" IVar="0" Cut="2.1374461650848389e+00" cType="1" res="-3.5378798202145845e-05" rms="4.7207939624786377e-01" purity="5.0000000000000000e-01" nType="0">
        <Node pos="l" depth="1" NCoef="0" IVar="1" Cut="-3.0531528592109680e-01" cType="1" res="-1.1410061269998550e-03" rms="4.7328475117683411e-01" purity="5.1186096668243408e-01" nType="0">
          <Node pos="l" depth="2" NCoef="0" IVar="2" Cut="2.4747538757324219e+02" cType="1" res="3.9853183552622795e-03" rms="4.7348266839981079e-01" purity="5.0139784812927246e-01" nType="0">
            <Node pos="l" depth="3" NCoef="0" IVar="-1" Cut="0.0000000000000000e+00" cType="1" res="1.4129049144685268e-02" rms="4.7983473539352417e-01" purity="5.2719247341156006e-01" nType="-99"/>
            <Node pos="r" depth="3" NCoef="0" IVar="-1" Cut="0.0000000000000000e+00" cType="1" res="-7.1827568113803864e-02" rms="3.9486107230186462e-01" purity="2.1416707336902618e-01" nType="-99"/>
          </Node>
          <Node pos="r" depth="2" NCoef="0" IVar="1" Cut="-7.2678342461585999e-02" cType="1" res="-4.6151326969265938e-03" rms="4.7311902046203613e-01" purity="5.1895189285278320e-01" nType="0">
            <Node pos="l" depth="3" NCoef="0" IVar="-1" Cut="0.0000000000000000e+00" cType="1" res="-3.9974194020032883e-02" rms="4.7149866819381714e-01" purity="5.2380281686782837e-01" nType="-99"/>
            <Node pos="r" depth="3" NCoef="0" IVar="-1" Cut="0.0000000000000000e+00" cType="1" res="-6.2580946832895279e-03" rms="4.7330841422080994e-01" purity="5.1829683780670166e-01" nType="-99"/>
          </Node>
        </Node>
        <Node pos="r" depth="1" NCoef="0" IVar="6" Cut="7.4792551994323730e-01" cType="1" res="1.2099758721888065e-02" rms="4.5846629142761230e-01" purity="3.6981645226478577e-01" nType="0">
          <Node pos="l" depth="2" NCoef="0" IVar="3" Cut="1.1184811592102051e+00" cType="1" res="2.7610454708337784e-02" rms="4.5818594098091125e-01" purity="3.7706717848777771e-01" nType="0">
            <Node pos="l" depth="3" NCoef="0" IVar="-1" Cut="0.0000000000000000e+00" cType="1" res="1.2196946144104004e-01" rms="4.6834769845008850e-01" purity="4.4825774431228638e-01" nType="-99"/>
            <Node pos="r" depth="3" NCoef="0" IVar="-1" Cut="0.0000000000000000e+00" cType="1" res="9.2893242835998535e-03" rms="4.4702774286270142e-01" purity="3.0973258614540100e-01" nType="-99"/>
          </Node>
          <Node pos="r" depth="2" NCoef="0" IVar="-1" Cut="0.0000000000000000e+00" cType="1" res="-3.4316807985305786e-02" rms="4.5772725343704224e-01" purity="3.5740280151367188e-01" nType="-99"/>
        </Node>
      </Node>
    </BinaryTree>
    <BinaryTree type="DecisionTree" boostWeight="1.0000000000000000e+00" itree="25">
      <Node pos="s" depth="0" NCoef="0" IVar="0" Cut="3.6129871010780334e-01" cType="1" res="-4.4102373067289591e-05" rms="4.7191721200942993e-01" purity="5.0000000000000000e-01" nType="0">
        <Node pos="l" depth="1" NCoef="0" IVar="-1" Cut="0.0000000000000000e+00" cType="1" res="4.5729991048574448e-02" rms="4.6699213981628418e-01" purity="5.8129560947418213e-01" nType="-99"/>
        <Node pos="r" depth="1" NCoef="0" IVar="5" Cut="2.8422982692718506e+00" cType="1" res="-1.0915318271145225e-03" rms="4.7214087843894958e-01" purity="4.9588721990585327e-01" nType="0">
          <Node pos="l" depth="2" NCoef="0" IVar="4" Cut="5.7373446226119995e-01" cType="1" res="-1.3394511188380420e-04" rms="4.7178682684898376e-01" purity="4.9427008628845215e-01" nType="0">
            <Node pos="l" depth="3" NCoef="0" IVar="-1" Cut="0.0000000000000000e+00" cType="1" res="2.1692138165235519e-02" rms="4.7351834177970886e-01" purity="5.5936104059219360e-01" nType="-99"/>
            <Node pos="r" depth="3" NCoef="0" IVar="-1" Cut="0.0000000000000000e+00" cType="1" res="-2.9680016450583935e-03" rms="4.7156205773353577e-01" purity="4.8635581135749817e-01" nType="-99"/>
          </Node>
          <Node pos="r" depth="2" NCoef="0" IVar="-1" Cut="0.0000000000000000e+00" cType="1" res="-4.8515480011701584e-02" rms="4.7905895113945007e-01" purity="5.2976959943771362e-01" nType="-99"/>
        </Node>
      </Node>
    </BinaryTree>
    <BinaryTree type="DecisionTree" boostWeight="1.0000000000000000e+00" itree="26">
      <Node pos="s" depth="0" NCoef="0" IVar="1" Cut="1.0685685873031616e+00" cType="1" res="1.2331664038356394e-05" rms="4.7186329960823059e-01" purity="5.0000000000000000e-01" nType="0">
        <Node pos="l" depth="1" NCoef="0" IVar="4" Cut="5.7375192642211914e-01" cType="1" res="1.3162050163373351e-03" rms="4.7129368782043457e-01" purity="5.1070362329483032e-01" nType="0">
          <Node pos="l" depth="2" NCoef="0" IVar="1" Cut="-4.3673270940780640e-01" cType="1" res="-1.0830424726009369e-02" rms="4.7121891379356384e-01" purity="5.6208169460296631e-01" nType="0">
            <Node pos="l" depth="3" NCoef="0" IVar="-1" Cut="0.0000000000000000e+00" cType="1" res="2.3582546040415764e-02" rms="4.7131401300430298e-01" purity="5.7213664054870605e-01" nType="-99"/>
            <Node pos="r" depth="3" NCoef="0" IVar="-1" Cut="0.0000000000000000e+00" cType="1" res="-6.5245963633060455e-02" rms="4.7039818763732910e-01" purity="5.5361902713775635e-01" nType="-99"/>
          </Node>
          <Node pos="r" depth="2" NCoef="0" IVar="5" Cut="-1.3464192152023315e+00" cType="1" res="2.8248007874935865e-03" rms="4.7128111124038696e-01" purity="5.0432252883911133e-01" nType="0">
            <Node pos="l" depth="3" NCoef="0" IVar="-1" Cut="0.0000000000000000e+00" cType="1" res="2.3988928645849228e-02" rms="4.7442221641540527e-01" purity="5.3483015298843384e-01" nType="-99"/>
            <Node pos="r" depth="3" NCoef="0" IVar="-1" Cut="0.0000000000000000e+00" cType="1" res="-3.7730528856627643e-04" rms="4.7007265686988831e-01" purity="4.9297851324081421e-01" nType="-99"/>
          </Node>
        </Node>
        <Node pos="r" depth="1" NCoef="0" IVar="3" Cut="1.7786873579025269e+00" cType="1" res="-5.0509450957179070e-03" rms="4.7403478622436523e-01" purity="4.5843514800071716e-01" nType="0">
          <Node pos="l" depth="2" NCoef="0" IVar="4" Cut="9.1694521903991699e-01" cType="1" res="-1.0497201234102249e-02" rms="4.7697180509567261e-01" purity="4.7381421923637390e-01" nType="0">
            <Node pos="l" depth="3" NCoef="0" IVar="-1" Cut="0.0000000000000000e+00" cType="1" res="1.7185000702738762e-02" rms="4.7733151912689209e-01" purity="5.2276414632797241e-01" nType="-99"/>
            <Node pos="r" depth="3" NCoef="0" IVar="-1" Cut="0.0000000000000000e+00" cType="1" res="-4.6584397554397583e-02" rms="4.7645595669746399e-01" purity="4.4601008296012878e-01" nType="-99"/>
          </Node>
          <Node pos="r" depth="2" NCoef="0" IVar="-1" Cut="0.0000000000000000e+00" cType="1" res="8.1839017570018768e-02" rms="4.5241084694862366e-01" purity="3.5640281438827515e-01" nType="-99"/>
        </Node>
      </Node>
    </BinaryTree>
    <BinaryTree type="DecisionTree" boostWeight="1.0000000000000000e+00" itree="27">
      <Node pos="s" depth="0" NCoef="0" IVar="5" Cut="-1.4964282512664795e-01" cType="1" res="-4.2605256567185279e-06" rms="4.7169372439384460e-01" purity="5.0000000000000000e-01" nType="0">
        <Node pos="l" depth="1" NCoef="0" IVar="6" Cut="1.4959923923015594e-01" cType="1" res="-3.7883529439568520e-03" rms="4.7210055589675903e-01" purity="4.9968954920768738e-01" nType="0">
          <Node pos="l" depth="2" NCoef="0" IVar="0" Cut="1.3102449178695679e+00" cType="1" res="-1.2563249096274376e-02" rms="4.7069275379180908e-01" purity="4.5345145463943481e-01" nType="0">
            <Node pos="l" depth="3" NCoef="0" IVar="-1" Cut="0.0000000000000000e+00" cType="1" res="-6.6992342472076416e-02" rms="4.7188290953636169e-01" purity="4.8517966270446777e-01" nType="-99"/>
            <Node pos="r" depth="3" NCoef="0" IVar="-1" Cut="0.0000000000000000e+00" cType="1" res="1.1617046780884266e-02" rms="4.6886590123176575e-01" purity="4.2280608415603638e-01" nType="-99"/>
          </Node>
          <Node pos="r" depth="2" NCoef="0" IVar="0" Cut="1.1830819845199585e+00" cType="1" res="3.0849638860672712e-03" rms="4.7308668494224548e-01" purity="5.3590756654739380e-01" nType="0">
            <Node pos="l" depth="3" NCoef="0" IVar="-1" Cut="0.0000000000000000e+00" cType="1" res="3.9207771420478821e-02" rms="4.6752390265464783e-01" purity="5.9413403272628784e-01" nType="-99"/>
            <Node pos="r" depth="3" NCoef="0" IVar="-1" Cut="0.0000000000000000e+00" cType="1" res="-2.0057870075106621e-02" rms="4.7739660739898682e-01" purity="4.8674425482749939e-01" nType="-99"/>
          </Node>
        </Node>
        <Node pos="r" depth="1" NCoef="0" IVar="6" Cut="-1.4959248900413513e-01" cType="1" res="3.3555652480572462e-03" rms="4.7130677103996277e-01" purity="5.0027567148208618e-01" nType="0">
          <Node pos="l" depth="2" NCoef="0" IVar="0" Cut="1.3080658912658691e+00" cType="1" res="8.8884122669696808e-03" rms="4.7128757834434509e-01" purity="5.3357940912246704e-01" nType="0">
            <Node pos="l" depth="3" NCoef="0" IVar="-1" Cut="0.0000000000000000e+00" cType="1" res="4.1503325104713440e-02" rms="4.7255519032478333e-01" purity="5.8001857995986938e-01" nType="-99"/>
            <Node pos="r" depth="3" NCoef="0" IVar="-1" Cut="0.0000000000000000e+00" cType="1" res="-3.1128528062254190e-03" rms="4.6967470645904541e-01" purity="4.8244604468345642e-01" nType="-99"/>
          </Node>
          <Node pos="r" depth="2" NCoef="0" IVar="0" Cut="9.4778150320053101e-01" cType="1" res="-3.4587241243571043e-03" rms="4.7124111652374268e-01" purity="4.5925849676132202e-01" nType="0">
            <Node pos="l" depth="3" NCoef="0" IVar="-1" Cut="0.0000000000000000e+00" cType="1" res="-6.7397288978099823e-02" rms="4.7045737504959106e-01" purity="4.8898521065711975e-01" nType="-99"/>
            <Node pos="r" depth="3" NCoef="0" IVar="-1" Cut="0.0000000000000000e+00" cType="1" res="1.6722518950700760e-02" rms="4.7110706567764282e-01" purity="4.4754552841186523e-01" nType="-99"/>
          </Node>
        </Node>
      </Node>
    </BinaryTree>
    <BinaryTree type="DecisionTree" boostWeight="1.0000000000000000e+00" itree="28">
      <Node pos="s" depth="0" NCoef="0" IVar="1" Cut="-1.1818731576204300e-01" cType="1" res="3.4689615858951584e-05" rms="4.7140219807624817e-01" purity="5.0000000000000000e-01" nType="0">
        <Node pos="l" depth="1" NCoef="0" IVar="0" Cut="1.3619675636291504e+00" cType="1" res="-3.4256831277161837e-03" rms="4.7075891494750977e-01" purity="4.9282807111740112e-01" nType="0">
          <Node pos="l" depth="2" NCoef="0" IVar="2" Cut="7.6106117248535156e+01" cType="1" res="3.7619201466441154e-03" rms="4.7254443168640137e-01" purity="5.4208499193191528e-01" nType="0">
            <Node pos="l" depth="3" NCoef="0" IVar="-1" Cut="0.0000000000000000e+00" cType="1" res="4.6510644257068634e-02" rms="4.7709131240844727e-01" purity="5.9925782680511475e-01" nType="-99"/>
            <Node pos="r" depth="3" NCoef="0" IVar="-1" Cut="0.0000000000000000e+00" cType="1" res="-1.4603524468839169e-02" rms="4.6954789757728577e-01" purity="5.0844079256057739e-01" nType="-99"/>
          </Node>
          <Node pos="r" depth="2" NCoef="0" IVar="1" Cut="-9.0952557325363159e-01" cType="1" res="-1.1691894382238388e-02" rms="4.6856075525283813e-01" purity="4.3617942929267883e-01" nType="0">
            <Node pos="l" depth="3" NCoef="0" IVar="-1" Cut="0.0000000000000000e+00" cType="1" res="-1.2904200702905655e-02" rms="4.6921163797378540e-01" purity="4.3655544519424438e-01" nType="-99"/>
            <Node pos="r" depth="3" NCoef="0" IVar="-1" Cut="0.0000000000000000e+00" cType="1" res="-7.1454532444477081e-02" rms="4.6585068106651306e-01" purity="4.3494084477424622e-01" nType="-99"/>
          </Node>
        </Node>
        <Node pos="r" depth="1" NCoef="0" IVar="0" Cut="1.3085774183273315e+00" cType="1" res="3.0153209809213877e-03" rms="4.7193527221679688e-01" purity="5.0617760419845581e-01" nType="0">
          <Node pos="l" depth="2" NCoef="0" IVar="3" Cut="1.7213736772537231e+00" cType="1" res="-3.9940900169312954e-03" rms="4.7154894471168518e-01" purity="5.4175299406051636e-01" nType="0">
            <Node pos="l" depth="3" NCoef="0" IVar="-1" Cut="0.0000000000000000e+00" cType="1" res="1.8211934948340058e-03" rms="4.7318843007087708e-01" purity="5.6144750118255615e-01" nType="-99"/>
            <Node pos="r" depth="3" NCoef="0" IVar="-1" Cut="0.0000000000000000e+00" cType="1" res="-1.1050747334957123e-01" rms="4.5423057675361633e-01" purity="3.6442658305168152e-01" nType="-99"/>
          </Node>
          <Node pos="r" depth="2" NCoef="0" IVar="5" Cut="1.6454584598541260e+00" cType="1" res="1.0611825622618198e-02" rms="4.7223612666130066e-01" purity="4.6762254834175110e-01" nType="0">
            <Node pos="l" depth="3" NCoef="0" IVar="-1" Cut="0.0000000000000000e+00" cType="1" res="1.0217780247330666e-02" rms="4.7098603844642639e-01" purity="4.4593349099159241e-01" nType="-99"/>
            <Node pos="r" depth="3" NCoef="0" IVar="-1" Cut="0.0000000000000000e+00" cType="1" res="6.7032642662525177e-02" rms="4.7562354803085327e-01" purity="5.3552597761154175e-01" nType="-99"/>
          </Node>
        </Node>
      </Node>
    </BinaryTree>
    <BinaryTree type="DecisionTree" boostWeight="1.0000000000000000e+00" itree="29">
      <Node pos="s" depth="0" NCoef="0" IVar="1" Cut="1.0685685873031616e+00" cType="1" res="-9.0543135229381733e-06" rms="4.7117739915847778e-01" purity="5.0000000000000000e-01" nType="0">
        <Node pos="l" depth="1" NCoef="0" IVar="1" Cut="7.2930616140365601e-01" cType="1" res="2.1046176552772522e-03" rms="4.7058388590812683e-01" purity="5.1070362329483032e-01" nType="0">
          <Node pos="l" depth="2" NCoef="0" IVar="0" Cut="2.0182459354400635e+00" cType="1" res="6.5935059683397412e-04" rms="4.7055870294570923e-01" purity="5.0690609216690063e-01" nType="0">
            <Node pos="l" depth="3" NCoef="0" IVar="-1" Cut="0.0000000000000000e+00" cType="1" res="-1.8313245382159948e-03" rms="4.7185432910919189e-01" purity="5.1873397827148438e-01" nType="-99"/>
            <Node pos="r" depth="3" NCoef="0" IVar="-1" Cut="0.0000000000000000e+00" cType="1" res="2.9611434787511826e-02" rms="4.5981439948081970e-01" purity="4.1160926222801208e-01" nType="-99"/>
          </Node>
          <Node pos="r" depth="2" NCoef="0" IVar="3" Cut="1.0996515750885010e+00" cType="1" res="1.3872505165636539e-02" rms="4.7062373161315918e-01" purity="5.4162418842315674e-01" nType="0">
            <Node pos="l" depth="3" NCoef="0" IVar="-1" Cut="0.0000000000000000e+00" cType="1" res="6.9927707314491272e-02" rms="4.6895480155944824e-01" purity="5.9463077783584595e-01" nType="-99"/>
            <Node pos="r" depth="3" NCoef="0" IVar="-1" Cut="0.0000000000000000e+00" cType="1" res="-1.9717030227184296e-02" rms="4.7178304195404053e-01" purity="4.7421264648437500e-01" nType="-99"/>
          </Node>
        </Node>
        <Node pos="r" depth="1" NCoef="0" IVar="5" Cut="2.2436785697937012e+00" cType="1" res="-8.2169873639941216e-03" rms="4.7338557243347168e-01" purity="4.5843514800071716e-01" nType="0">
          <Node pos="l" depth="2" NCoef="0" IVar="1" Cut="1.9501720666885376e+00" cType="1" res="-4.6377833932638168e-03" rms="4.7174647450447083e-01" purity="4.5134547352790833e-01" nType="0">
            <Node pos="l" depth="3" NCoef="0" IVar="-1" Cut="0.0000000000000000e+00" cType="1" res="2.2109246347099543e-03" rms="4.7696992754936218e-01" purity="4.8299923539161682e-01" nType="-99"/>
            <Node pos="r" depth="3" NCoef="0" IVar="-1" Cut="0.0000000000000000e+00" cType="1" res="-5.8969430625438690e-02" rms="4.5215463638305664e-01" purity="3.3899199962615967e-01" nType="-99"/>
          </Node>
          <Node pos="r" depth="2" NCoef="0" IVar="-1" Cut="0.0000000000000000e+00" cType="1" res="-7.1164682507514954e-02" rms="4.8315840959548950e-01" purity="5.0401705503463745e-01" nType="-99"/>
        </Node>
      </Node>
    </BinaryTree>
    <BinaryTree type="DecisionTree" boostWeight="1.0000000000000000e+00" itree="30">
      <Node pos="s" depth="0" NCoef="0" IVar="1" Cut="-2.0169968605041504e+00" cType="1" res="2.0487429992499528e-06" rms="4.7103780508041382e-01" purity="5.0000000000000000e-01" nType="0">
        <Node pos="l" depth="1" NCoef="0" IVar="-1" Cut="0.0000000000000000e+00" cType="1" res="-4.0708847343921661e-02" rms="4.5738509297370911e-01" purity="3.8494926691055298e-01" nType="-99"/>
        <Node pos="r" depth="1" NCoef="0" IVar="1" Cut="-1.8018740415573120e+00" cType="1" res="6.8803766043856740e-04" rms="4.7155931591987610e-01" purity="5.0457370281219482e-01" nType="0">
          <Node pos="l" depth="2" NCoef="0" IVar="-1" Cut="0.0000000000000000e+00" cType="1" res="4.7481693327426910e-02" rms="4.7388681769371033e-01" purity="4.4432738423347473e-01" nType="-99"/>
          <Node pos="r" depth="2" NCoef="0" IVar="0" Cut="2.0190365314483643e+00" cType="1" res="7.4284464062657207e-05" rms="4.7147428989410400e-01" purity="5.0642251968383789e-01" nType="0">
            <Node pos="l" depth="3" NCoef="0" IVar="-1" Cut="0.0000000000000000e+00" cType="1" res="-2.4399170652031898e-03" rms="4.7270172834396362e-01" purity="5.1782405376434326e-01" nType="-99"/>
            <Node pos="r" depth="3" NCoef="0" IVar="-1" Cut="0.0000000000000000e+00" cType="1" res="2.5742743164300919e-02" rms="4.5985040068626404e-01" purity="4.0117254853248596e-01" nType="-99"/>
          </Node>
        </Node>
      </Node>
    </BinaryTree>
    <BinaryTree type="DecisionTree" boostWeight="1.0000000000000000e+00" itree="31">
      <Node pos="s" depth="0" NCoef="0" IVar="3" Cut="1.6643737554550171e+00" cType="1" res="-1.0045825547422282e-05" rms="4.7099933028221130e-01" purity="5.0000000000000000e-01" nType="0">
        <Node pos="l" depth="1" NCoef="0" IVar="0" Cut="5.9811836481094360e-01" cType="1" res="-1.1052351910620928e-03" rms="4.7387334704399109e-01" purity="5.2171814441680908e-01" nType="0">
          <Node pos="l" depth="2" NCoef="0" IVar="6" Cut="1.3464573621749878e+00" cType="1" res="9.3385409563779831e-03" rms="4.6948385238647461e-01" purity="5.8942747116088867e-01" nType="0">
            <Node pos="l" depth="3" NCoef="0" IVar="-1" Cut="0.0000000000000000e+00" cType="1" res="3.5798281896859407e-03" rms="4.7204047441482544e-01" purity="5.7210457324981689e-01" nType="-99"/>
            <Node pos="r" depth="3" NCoef="0" IVar="-1" Cut="0.0000000000000000e+00" cType="1" res="6.3344419002532959e-02" rms="4.6267199516296387e-01" purity="6.3153278827667236e-01" nType="-99"/>
          </Node>
          <Node pos="r" depth="2" NCoef="0" IVar="3" Cut="1.5439596176147461e+00" cType="1" res="-2.8063619975000620e-03" rms="4.7456273436546326e-01" purity="5.1068937778472900e-01" nType="0">
            <Node pos="l" depth="3" NCoef="0" IVar="-1" Cut="0.0000000000000000e+00" cType="1" res="-2.7604566421359777e-03" rms="4.7507578134536743e-01" purity="5.1466780900955200e-01" nType="-99"/>
            <Node pos="r" depth="3" NCoef="0" IVar="-1" Cut="0.0000000000000000e+00" cType="1" res="-6.5905936062335968e-02" rms="4.6511930227279663e-01" purity="4.4417080283164978e-01" nType="-99"/>
          </Node>
        </Node>
        <Node pos="r" depth="1" NCoef="0" IVar="1" Cut="-8.3675128221511841e-01" cType="1" res="5.9847095981240273e-03" rms="4.5489943027496338e-01" purity="3.8112112879753113e-01" nType="0">
          <Node pos="l" depth="2" NCoef="0" IVar="-1" Cut="0.0000000000000000e+00" cType="1" res="7.6165869832038879e-02" rms="4.5411273837089539e-01" purity="3.9226904511451721e-01" nType="-99"/>
          <Node pos="r" depth="2" NCoef="0" IVar="1" Cut="-5.2804131060838699e-02" cType="1" res="-3.5643994342535734e-03" rms="4.5484811067581177e-01" purity="3.7677824497222900e-01" nType="0">
            <Node pos="l" depth="3" NCoef="0" IVar="-1" Cut="0.0000000000000000e+00" cType="1" res="-7.1837700903415680e-02" rms="4.4209268689155579e-01" purity="3.6687397956848145e-01" nType="-99"/>
            <Node pos="r" depth="3" NCoef="0" IVar="-1" Cut="0.0000000000000000e+00" cType="1" res="1.7082097008824348e-02" rms="4.5940664410591125e-01" purity="3.8072600960731506e-01" nType="-99"/>
          </Node>
        </Node>
      </Node>
    </BinaryTree>
    <BinaryTree type="DecisionTree" boostWeight="1.0000000000000000e+00" itree="32">
      <Node pos="s" depth="0" NCoef="0" IVar="3" Cut="1.1225044727325439e+00" cType="1" res="-2.0991548808524385e-05" rms="4.7084647417068481e-01" purity="5.0000000000000000e-01" nType="0">
        <Node pos="l" depth="1" NCoef="0" IVar="4" Cut="1.7898020744323730e+00" cType="1" res="-2.3005835246294737e-03" rms="4.7475674748420715e-01" purity="5.3257960081100464e-01" nType="0">
          <Node pos="l" depth="2" NCoef="0" IVar="1" Cut="-8.0908203125000000e-01" cType="1" res="-3.9546354673802853e-03" rms="4.7546198964118958e-01" purity="5.3772640228271484e-01" nType="0">
            <Node pos="l" depth="3" NCoef="0" IVar="-1" Cut="0.0000000000000000e+00" cType="1" res="-3.1543012708425522e-02" rms="4.7511628270149231e-01" purity="4.9858912825584412e-01" nType="-99"/>
            <Node pos="r" depth="3" NCoef="0" IVar="-1" Cut="0.0000000000000000e+00" cType="1" res="-1.0944296373054385e-03" rms="4.7552779316902161e-01" purity="5.5085897445678711e-01" nType="-99"/>
          </Node>
          <Node pos="r" depth="2" NCoef="0" IVar="-1" Cut="0.0000000000000000e+00" cType="1" res="3.6826502531766891e-02" rms="4.6643325686454773e-01" purity="4.7525298595428467e-01" nType="-99"/>
        </Node>
        <Node pos="r" depth="1" NCoef="0" IVar="3" Cut="2.2922544479370117e+00" cType="1" res="2.7434073854237795e-03" rms="4.6604561805725098e-01" purity="4.6049162745475769e-01" nType="0">
          <Node pos="l" depth="2" NCoef="0" IVar="2" Cut="9.5244201660156250e+01" cType="1" res="4.7277710400521755e-03" rms="4.6942213177680969e-01" purity="4.7397401928901672e-01" nType="0">
            <Node pos="l" depth="3" NCoef="0" IVar="-1" Cut="0.0000000000000000e+00" cType="1" res="-9.8926527425646782e-03" rms="4.7966015338897705e-01" purity="5.3335386514663696e-01" nType="-99"/>
            <Node pos="r" depth="3" NCoef="0" IVar="-1" Cut="0.0000000000000000e+00" cType="1" res="3.1070299446582794e-02" rms="4.5990487933158875e-01" purity="4.2081293463706970e-01" nType="-99"/>
          </Node>
          <Node pos="r" depth="2" NCoef="0" IVar="-1" Cut="0.0000000000000000e+00" cType="1" res="-7.3221370577812195e-02" rms="4.1220584511756897e-01" purity="2.6252856850624084e-01" nType="-99"/>
        </Node>
      </Node>
    </BinaryTree>
    <BinaryTree type="DecisionTree" boostWeight="1.0000000000000000e+00" itree="33">
      <Node pos="s" depth="0" NCoef="0" IVar="2" Cut="1.0137678527832031e+02" cType="1" res="-2.7923964807996526e-05" rms="4.7072634100914001e-01" purity="5.0000000000000000e-01" nType="0">
        <Node pos="l" depth="1" NCoef="0" IVar="2" Cut="4.7910751342773438e+01" cType="1" res="2.8860250022262335e-03" rms="4.7877922654151917e-01" purity="5.6526356935501099e-01" nType="0">
          <Node pos="l" depth="2" NCoef="0" IVar="2" Cut="2.7542892456054688e+01" cType="1" res="1.8612457439303398e-02" rms="4.8512980341911316e-01" purity="5.5009818077087402e-01" nType="0">
            <Node pos="l" depth="3" NCoef="0" IVar="-1" Cut="0.0000000000000000e+00" cType="1" res="-4.7547863796353340e-03" rms="4.9070158600807190e-01" purity="5.0370645523071289e-01" nType="-99"/>
            <Node pos="r" depth="3" NCoef="0" IVar="-1" Cut="0.0000000000000000e+00" cType="1" res="5.3528800606727600e-02" rms="4.8325690627098083e-01" purity="5.6411194801330566e-01" nType="-99"/>
          </Node>
          <Node pos="r" depth="2" NCoef="0" IVar="0" Cut="1.3102449178695679e+00" cType="1" res="-1.7146248137578368e-03" rms="4.7680738568305969e-01" purity="5.6970018148422241e-01" nType="0">
            <Node pos="l" depth="3" NCoef="0" IVar="-1" Cut="0.0000000000000000e+00" cType="1" res="-1.4838106930255890e-02" rms="4.7176942229270935e-01" purity="5.9327602386474609e-01" nType="-99"/>
            <Node pos="r" depth="3" NCoef="0" IVar="-1" Cut="0.0000000000000000e+00" cType="1" res="9.8458761349320412e-03" rms="4.8320516943931580e-01" purity="5.3905558586120605e-01" nType="-99"/>
          </Node>
        </Node>
        <Node pos="r" depth="1" NCoef="0" IVar="5" Cut="2.8421804904937744e+00" cType="1" res="-2.8149827849119902e-03" rms="4.6287590265274048e-01" purity="4.3757838010787964e-01" nType="0">
          <Node pos="l" depth="2" NCoef="0" IVar="6" Cut="-1.3464280366897583e+00" cType="1" res="-3.9203884080052376e-03" rms="4.6226495504379272e-01" purity="4.3462252616882324e-01" nType="0">
            <Node pos="l" depth="3" NCoef="0" IVar="-1" Cut="0.0000000000000000e+00" cType="1" res="9.5350518822669983e-03" rms="4.6522113680839539e-01" purity="4.5406875014305115e-01" nType="-99"/>
            <Node pos="r" depth="3" NCoef="0" IVar="-1" Cut="0.0000000000000000e+00" cType="1" res="-1.6156688332557678e-02" rms="4.6109420061111450e-01" purity="4.2719557881355286e-01" nType="-99"/>
          </Node>
          <Node pos="r" depth="2" NCoef="0" IVar="-1" Cut="0.0000000000000000e+00" cType="1" res="4.3493155390024185e-02" rms="4.7408428788185120e-01" purity="4.9503603577613831e-01" nType="-99"/>
        </Node>
      </Node>
    </BinaryTree>
    <BinaryTree type="DecisionTree" boostWeight="1.0000000000000000e+00" itree="34">
      <Node pos="s" depth="0" NCoef="0" IVar="5" Cut="7.4793946743011475e-01" cType="1" res="9.9142243925598450e-06" rms="4.7063860297203064e-01" purity="5.0000000000000000e-01" nType="0">
        <Node pos="l" depth="1" NCoef="0" IVar="2" Cut="2.7411206054687500e+02" cType="1" res="2.5823016185313463e-03" rms="4.7029820084571838e-01" purity="4.8739838600158691e-01" nType="0">
          <Node pos="l" depth="2" NCoef="0" IVar="2" Cut="2.2475468444824219e+02" cType="1" res="4.0159435011446476e-03" rms="4.7716969251632690e-01" purity="5.0966662168502808e-01" nType="0">
            <Node pos="l" depth="3" NCoef="0" IVar="-1" Cut="0.0000000000000000e+00" cType="1" res="1.1791463941335678e-02" rms="4.7899374365806580e-01" purity="5.1996201276779175e-01" nType="-99"/>
            <Node pos="r" depth="3" NCoef="0" IVar="-1" Cut="0.0000000000000000e+00" cType="1" res="-5.1701292395591736e-02" rms="4.4139426946640015e-01" purity="3.1965440511703491e-01" nType="-99"/>
          </Node>
          <Node pos="r" depth="2" NCoef="0" IVar="-1" Cut="0.0000000000000000e+00" cType="1" res="-5.7481314986944199e-02" rms="3.6304774880409241e-01" purity="1.8310815095901489e-01" nType="-99"/>
        </Node>
        <Node pos="r" depth="1" NCoef="0" IVar="0" Cut="4.7394216060638428e-01" cType="1" res="-4.4352202676236629e-03" rms="4.7119310498237610e-01" purity="5.2177590131759644e-01" nType="0">
          <Node pos="l" depth="2" NCoef="0" IVar="-1" Cut="0.0000000000000000e+00" cType="1" res="-6.7261934280395508e-02" rms="4.6589204668998718e-01" purity="5.6835144758224487e-01" nType="-99"/>
          <Node pos="r" depth="2" NCoef="0" IVar="1" Cut="-1.5223679542541504e+00" cType="1" res="-2.3284032940864563e-03" rms="4.7158247232437134e-01" purity="5.1780456304550171e-01" nType="0">
            <Node pos="l" depth="3" NCoef="0" IVar="-1" Cut="0.0000000000000000e+00" cType="1" res="3.3745054155588150e-02" rms="4.6853801608085632e-01" purity="4.6748048067092896e-01" nType="-99"/>
            <Node pos="r" depth="3" NCoef="0" IVar="-1" Cut="0.0000000000000000e+00" cType="1" res="-1.0915118269622326e-02" rms="4.7197312116622925e-01" purity="5.2513766288757324e-01" nType="-99"/>
          </Node>
        </Node>
      </Node>
    </BinaryTree>
