<?xml version="1.0"?>
<MethodSetup Method="BDT::BDT3_10_Grad">
  <GeneralInfo>
    <Info name="TMVA Release" value="4.2.1 [262657]"/>
    <Info name="ROOT Release" value="6.24/00 [399360]"/>
    <Info name="Creator" value="root"/>
    <Info name="Date" value="Sun Jul 18 20:03:18 2021"/>
    <Info name="Host" value="Linux 3bfcc9c0a42a 4.15.0-1111-azure #123~16.04.1-Ubuntu SMP Sat Mar 20 01:52:07 UTC 2021 x86_64 x86_64 x86_64 GNU/Linux"/>
    <Info name="Dir" value="/root"/>
    <Info name="Training events" value="132940"/>
    <Info name="TrainingTime" value="1.56083894e+00"/>
    <Info name="AnalysisType" value="Classification"/>
  </GeneralInfo>
  <Options>
    <Option name="V" modified="Yes">False</Option>
    <Option name="VerbosityLevel" modified="No">Default</Option>
    <Option name="VarTransform" modified="No">None</Option>
    <Option name="H" modified="No">False</Option>
    <Option name="CreateMVAPdfs" modified="No">False</Option>
    <Option name="IgnoreNegWeightsInTraining" modified="No">False</Option>
    <Option name="NTrees" modified="Yes">10</Option>
    <Option name="MaxDepth" modified="Yes">3</Option>
    <Option name="MinNodeSize" modified="Yes">2.5%</Option>
    <Option name="nCuts" modified="No">20</Option>
    <Option name="BoostType" modified="Yes">Grad</Option>
    <Option name="AdaBoostR2Loss" modified="No">quadratic</Option>
    <Option name="UseBaggedBoost" modified="No">False</Option>
    <Option name="Shrinkage" modified="No">1.000000e+00</Option>
    <Option name="AdaBoostBeta" modified="No">5.000000e-01</Option>
    <Option name="UseRandomisedTrees" modified="No">False</Option>
    <Option name="UseNvars" modified="No">3</Option>
    <Option name="UsePoissonNvars" modified="No">True</Option>
    <Option name="BaggedSampleFraction" modified="No">6.000000e-01</Option>
    <Option name="UseYesNoLeaf" modified="No">True</Option>
    <Option name="NegWeightTreatment" modified="No">pray</Option>
    <Option name="Css" modified="No">1.000000e+00</Option>
    <Option name="Cts_sb" modified="No">1.000000e+00</Option>
    <Option name="Ctb_ss" modified="No">1.000000e+00</Option>
    <Option name="Cbb" modified="No">1.000000e+00</Option>
    <Option name="NodePurityLimit" modified="No">5.000000e-01</Option>
    <Option name="SeparationType" modified="Yes">sdivsqrtsplusb</Option>
    <Option name="RegressionLossFunctionBDTG" modified="No">huber</Option>
    <Option name="HuberQuantile" modified="No">7.000000e-01</Option>
    <Option name="DoBoostMonitor" modified="No">False</Option>
    <Option name="UseFisherCuts" modified="No">False</Option>
    <Option name="MinLinCorrForFisher" modified="No">8.000000e-01</Option>
    <Option name="UseExclusiveVars" modified="No">False</Option>
    <Option name="DoPreselection" modified="No">False</Option>
    <Option name="SigToBkgFraction" modified="No">1.000000e+00</Option>
    <Option name="PruneMethod" modified="No">nopruning</Option>
    <Option name="PruneStrength" modified="No">0.000000e+00</Option>
    <Option name="PruningValFraction" modified="No">5.000000e-01</Option>
    <Option name="SkipNormalization" modified="No">False</Option>
    <Option name="nEventsMin" modified="No">0</Option>
    <Option name="UseBaggedGrad" modified="No">False</Option>
    <Option name="GradBaggingFraction" modified="No">6.000000e-01</Option>
    <Option name="UseNTrainEvents" modified="No">0</Option>
    <Option name="NNodesMax" modified="No">0</Option>
  </Options>
  <Variables NVar="10">
    <Variable VarIndex="0" Expression="inv_m01" Label="inv_m01" Title="inv_m01" Unit="" Internal="inv_m01" Type="F" Min="1.50012960e+01" Max="1.16765613e+03"/>
    <Variable VarIndex="1" Expression="lep_eta1" Label="lep_eta1" Title="lep_eta1" Unit="" Internal="lep_eta1" Type="F" Min="-2.49853516e+00" Max="2.49707031e+00"/>
    <Variable VarIndex="2" Expression="lep_eta2" Label="lep_eta2" Title="lep_eta2" Unit="" Internal="lep_eta2" Type="F" Min="-2.49853516e+00" Max="2.49951172e+00"/>
    <Variable VarIndex="3" Expression="inv_m12" Label="inv_m12" Title="inv_m12" Unit="" Internal="inv_m12" Type="F" Min="1.50006189e+01" Max="1.88158972e+03"/>
    <Variable VarIndex="4" Expression="dR1J" Label="dR1J" Title="dR1J" Unit="" Internal="dR1J" Type="F" Min="4.00111854e-01" Max="4.88907719e+00"/>
    <Variable VarIndex="5" Expression="dR0bJ" Label="dR0bJ" Title="dR0bJ" Unit="" Internal="dR0bJ" Type="F" Min="4.00242954e-01" Max="5.65480661e+00"/>
    <Variable VarIndex="6" Expression="dR01" Label="dR01" Title="dR01" Unit="" Internal="dR01" Type="F" Min="3.03523354e-02" Max="4.98546934e+00"/>
    <Variable VarIndex="7" Expression="dPhi0" Label="dPhi0" Title="dPhi0" Unit="" Internal="dPhi0" Type="F" Min="-3.14158392e+00" Max="3.14158392e+00"/>
    <Variable VarIndex="8" Expression="dPhi1" Label="dPhi1" Title="dPhi1" Unit="" Internal="dPhi1" Type="F" Min="-3.14158392e+00" Max="3.14158392e+00"/>
    <Variable VarIndex="9" Expression="dPhi2" Label="dPhi2" Title="dPhi2" Unit="" Internal="dPhi2" Type="F" Min="-3.14158392e+00" Max="3.14158392e+00"/>
  </Variables>
  <Spectators NSpec="0"/>
  <Classes NClass="2">
    <Class Name="Signal" Index="0"/>
    <Class Name="Background" Index="1"/>
  </Classes>
  <Transformations NTransformations="0"/>
  <MVAPdfs/>
  <Weights NTrees="10" AnalysisType="1">
    <BinaryTree type="DecisionTree" boostWeight="1.0000000000000000e+00" itree="0">
      <Node pos="s" depth="0" NCoef="0" IVar="0" Cut="6.9889617919921875e+01" cType="1" res="-5.7827193418935260e-15" rms="5.0000000000000000e-01" purity="5.0000000000000000e-01" nType="0">
        <Node pos="l" depth="1" NCoef="0" IVar="5" Cut="2.1009371280670166e+00" cType="1" res="1.3884210586547852e-01" rms="4.8033621907234192e-01" purity="6.3884210586547852e-01" nType="0">
          <Node pos="l" depth="2" NCoef="0" IVar="0" Cut="4.8980533599853516e+01" cType="1" res="5.7272326201200485e-02" rms="4.9670904874801636e-01" purity="5.5727231502532959e-01" nType="0">
            <Node pos="l" depth="3" NCoef="0" IVar="-1" Cut="0.0000000000000000e+00" cType="1" res="2.1088989078998566e-01" rms="4.8875489830970764e-01" purity="6.0544496774673462e-01" nType="-99"/>
            <Node pos="r" depth="3" NCoef="0" IVar="-1" Cut="0.0000000000000000e+00" cType="1" res="-6.8562738597393036e-02" rms="4.9882340431213379e-01" purity="4.6571859717369080e-01" nType="-99"/>
          </Node>
          <Node pos="r" depth="2" NCoef="0" IVar="4" Cut="1.6767702102661133e+00" cType="1" res="1.9763715565204620e-01" rms="4.5928156375885010e-01" purity="6.9763714075088501e-01" nType="0">
            <Node pos="l" depth="3" NCoef="0" IVar="-1" Cut="0.0000000000000000e+00" cType="1" res="5.2839630842208862e-01" rms="4.2449891567230225e-01" purity="7.6419812440872192e-01" nType="-99"/>
            <Node pos="r" depth="3" NCoef="0" IVar="-1" Cut="0.0000000000000000e+00" cType="1" res="1.8121398985385895e-01" rms="4.9172183871269226e-01" purity="5.9060698747634888e-01" nType="-99"/>
          </Node>
        </Node>
        <Node pos="r" depth="1" NCoef="0" IVar="0" Cut="1.2216434478759766e+02" cType="1" res="-3.4840777516365051e-01" rms="3.5862517356872559e-01" purity="1.5159222483634949e-01" nType="0">
          <Node pos="l" depth="2" NCoef="0" IVar="0" Cut="7.9846694946289062e+01" cType="1" res="-2.8640583157539368e-01" rms="4.0984350442886353e-01" purity="2.1359416842460632e-01" nType="0">
            <Node pos="l" depth="3" NCoef="0" IVar="-1" Cut="0.0000000000000000e+00" cType="1" res="-3.6201393604278564e-01" rms="4.6608632802963257e-01" purity="3.1899303197860718e-01" nType="-99"/>
            <Node pos="r" depth="3" NCoef="0" IVar="-1" Cut="0.0000000000000000e+00" cType="1" res="-8.0557084083557129e-01" rms="2.9624971747398376e-01" purity="9.7214557230472565e-02" nType="-99"/>
          </Node>
          <Node pos="r" depth="2" NCoef="0" IVar="6" Cut="2.1065552234649658e+00" cType="1" res="-4.5928773283958435e-01" rms="1.9762280583381653e-01" purity="4.0712263435125351e-02" nType="0">
            <Node pos="l" depth="3" NCoef="0" IVar="-1" Cut="0.0000000000000000e+00" cType="1" res="-9.8177599906921387e-01" rms="9.5020972192287445e-02" purity="9.1120144352316856e-03" nType="-99"/>
            <Node pos="r" depth="3" NCoef="0" IVar="-1" Cut="0.0000000000000000e+00" cType="1" res="-8.7744456529617310e-01" rms="2.3983901739120483e-01" purity="6.1277709901332855e-02" nType="-99"/>
          </Node>
        </Node>
      </Node>
    </BinaryTree>
    <BinaryTree type="DecisionTree" boostWeight="1.0000000000000000e+00" itree="1">
      <Node pos="s" depth="0" NCoef="0" IVar="0" Cut="6.9889617919921875e+01" cType="1" res="-1.0537982918322086e-02" rms="4.3711316585540771e-01" purity="5.0000000000000000e-01" nType="0">
        <Node pos="l" depth="1" NCoef="0" IVar="0" Cut="3.5910984039306641e+01" cType="1" res="8.5579454898834229e-03" rms="4.6908694505691528e-01" purity="6.3884210586547852e-01" nType="0">
          <Node pos="l" depth="2" NCoef="0" IVar="5" Cut="2.6798384189605713e+00" cType="1" res="5.9293445199728012e-02" rms="4.4671663641929626e-01" purity="7.0872384309768677e-01" nType="0">
            <Node pos="l" depth="3" NCoef="0" IVar="-1" Cut="0.0000000000000000e+00" cType="1" res="7.6187349855899811e-02" rms="4.6726626157760620e-01" purity="6.6703510284423828e-01" nType="-99"/>
            <Node pos="r" depth="3" NCoef="0" IVar="-1" Cut="0.0000000000000000e+00" cType="1" res="2.4317133426666260e-01" rms="4.0359294414520264e-01" purity="7.8350311517715454e-01" nType="-99"/>
          </Node>
          <Node pos="r" depth="2" NCoef="0" IVar="6" Cut="1.1047266721725464e+00" cType="1" res="-2.6002431288361549e-02" rms="4.8067668080329895e-01" purity="5.9123951196670532e-01" nType="0">
            <Node pos="l" depth="3" NCoef="0" IVar="-1" Cut="0.0000000000000000e+00" cType="1" res="-1.6363430023193359e-01" rms="4.7538119554519653e-01" purity="5.5942177772521973e-01" nType="-99"/>
            <Node pos="r" depth="3" NCoef="0" IVar="-1" Cut="0.0000000000000000e+00" cType="1" res="-3.5379782784730196e-03" rms="4.8160168528556824e-01" purity="6.0777747631072998e-01" nType="-99"/>
          </Node>
        </Node>
        <Node pos="r" depth="1" NCoef="0" IVar="6" Cut="1.3054677248001099e+00" cType="1" res="-5.8456949889659882e-02" rms="3.3933487534523010e-01" purity="1.5159222483634949e-01" nType="0">
          <Node pos="l" depth="2" NCoef="0" IVar="4" Cut="1.4403786659240723e+00" cType="1" res="-1.4587181806564331e-01" rms="2.8613868355751038e-01" purity="9.6529997885227203e-02" nType="0">
            <Node pos="l" depth="3" NCoef="0" IVar="-1" Cut="0.0000000000000000e+00" cType="1" res="-2.9067665338516235e-01" rms="3.3217209577560425e-01" purity="1.4174973964691162e-01" nType="-99"/>
            <Node pos="r" depth="3" NCoef="0" IVar="-1" Cut="0.0000000000000000e+00" cType="1" res="-5.3122603893280029e-01" rms="2.2762972116470337e-01" purity="5.4070618003606796e-02" nType="-99"/>
          </Node>
          <Node pos="r" depth="2" NCoef="0" IVar="0" Cut="1.2216434478759766e+02" cType="1" res="-3.6576643586158752e-02" rms="3.4797281026840210e-01" purity="1.6537451744079590e-01" nType="0">
            <Node pos="l" depth="3" NCoef="0" IVar="-1" Cut="0.0000000000000000e+00" cType="1" res="1.5338142402470112e-02" rms="4.1720926761627197e-01" purity="2.5270649790763855e-01" nType="-99"/>
            <Node pos="r" depth="3" NCoef="0" IVar="-1" Cut="0.0000000000000000e+00" cType="1" res="-3.9847558736801147e-01" rms="2.0337398350238800e-01" purity="4.3691828846931458e-02" nType="-99"/>
          </Node>
        </Node>
      </Node>
    </BinaryTree>
    <BinaryTree type="DecisionTree" boostWeight="1.0000000000000000e+00" itree="2">
      <Node pos="s" depth="0" NCoef="0" IVar="4" Cut="1.2551528215408325e+00" cType="1" res="-2.6116976514458656e-03" rms="4.3238702416419983e-01" purity="5.0000000000000000e-01" nType="0">
        <Node pos="l" depth="1" NCoef="0" IVar="5" Cut="1.5879585742950439e+00" cType="1" res="2.3386783897876740e-02" rms="4.2164584994316101e-01" purity="5.4464882612228394e-01" nType="0">
          <Node pos="l" depth="2" NCoef="0" IVar="3" Cut="1.6382296752929688e+02" cType="1" res="-2.4696944281458855e-02" rms="4.3098717927932739e-01" purity="3.9961579442024231e-01" nType="0">
            <Node pos="l" depth="3" NCoef="0" IVar="-1" Cut="0.0000000000000000e+00" cType="1" res="-1.2579568661749363e-02" rms="4.4591897726058960e-01" purity="4.5066240429878235e-01" nType="-99"/>
            <Node pos="r" depth="3" NCoef="0" IVar="-1" Cut="0.0000000000000000e+00" cType="1" res="-2.8264564275741577e-01" rms="3.6525216698646545e-01" purity="2.1919612586498260e-01" nType="-99"/>
          </Node>
          <Node pos="r" depth="2" NCoef="0" IVar="6" Cut="1.1311560869216919e+00" cType="1" res="4.8257179558277130e-02" rms="4.1454941034317017e-01" purity="6.1966443061828613e-01" nType="0">
            <Node pos="l" depth="3" NCoef="0" IVar="-1" Cut="0.0000000000000000e+00" cType="1" res="2.2436444461345673e-01" rms="3.9796462655067444e-01" purity="7.6004588603973389e-01" nType="-99"/>
            <Node pos="r" depth="3" NCoef="0" IVar="-1" Cut="0.0000000000000000e+00" cType="1" res="4.3052673339843750e-02" rms="4.2627760767936707e-01" purity="4.9302589893341064e-01" nType="-99"/>
          </Node>
        </Node>
        <Node pos="r" depth="1" NCoef="0" IVar="3" Cut="1.9277868652343750e+02" cType="1" res="-2.3502176627516747e-02" rms="4.3971583247184753e-01" purity="4.6412351727485657e-01" nType="0">
          <Node pos="l" depth="2" NCoef="0" IVar="4" Cut="2.8125598430633545e+00" cType="1" res="-1.4698630198836327e-02" rms="4.4764032959938049e-01" purity="4.9129492044448853e-01" nType="0">
            <Node pos="l" depth="3" NCoef="0" IVar="-1" Cut="0.0000000000000000e+00" cType="1" res="-2.2405439987778664e-02" rms="4.4710370898246765e-01" purity="4.9942398071289062e-01" nType="-99"/>
            <Node pos="r" depth="3" NCoef="0" IVar="-1" Cut="0.0000000000000000e+00" cType="1" res="-2.6558300852775574e-01" rms="4.4615870714187622e-01" purity="3.5941845178604126e-01" nType="-99"/>
          </Node>
          <Node pos="r" depth="2" NCoef="0" IVar="5" Cut="2.3980944156646729e+00" cType="1" res="-8.6718097329139709e-02" rms="3.7189167737960815e-01" purity="2.6901271939277649e-01" nType="0">
            <Node pos="l" depth="3" NCoef="0" IVar="-1" Cut="0.0000000000000000e+00" cType="1" res="-3.6215424537658691e-01" rms="3.4748956561088562e-01" purity="1.8335066735744476e-01" nType="-99"/>
            <Node pos="r" depth="3" NCoef="0" IVar="-1" Cut="0.0000000000000000e+00" cType="1" res="-1.8523070216178894e-01" rms="3.9263656735420227e-01" purity="3.5209298133850098e-01" nType="-99"/>
          </Node>
        </Node>
      </Node>
    </BinaryTree>
    <BinaryTree type="DecisionTree" boostWeight="1.0000000000000000e+00" itree="3">
      <Node pos="s" depth="0" NCoef="0" IVar="5" Cut="2.9024162292480469e+00" cType="1" res="4.3313147034496069e-04" rms="4.2946767807006836e-01" purity="5.0000000000000000e-01" nType="0">
        <Node pos="l" depth="1" NCoef="0" IVar="2" Cut="-1.5465261936187744e+00" cType="1" res="-9.0719098225235939e-03" rms="4.3314149975776672e-01" purity="4.6577644348144531e-01" nType="0">
          <Node pos="l" depth="2" NCoef="0" IVar="9" Cut="1.3459266424179077e+00" cType="1" res="-5.0811816006898880e-02" rms="4.2554733157157898e-01" purity="3.9037457108497620e-01" nType="0">
            <Node pos="l" depth="3" NCoef="0" IVar="-1" Cut="0.0000000000000000e+00" cType="1" res="-1.8126688897609711e-01" rms="4.1874599456787109e-01" purity="3.6790335178375244e-01" nType="-99"/>
            <Node pos="r" depth="3" NCoef="0" IVar="-1" Cut="0.0000000000000000e+00" cType="1" res="-4.2996976524591446e-02" rms="4.3834471702575684e-01" purity="4.4036859273910522e-01" nType="-99"/>
          </Node>
          <Node pos="r" depth="2" NCoef="0" IVar="2" Cut="1.5362025499343872e+00" cType="1" res="-4.0053995326161385e-03" rms="4.3378099799156189e-01" purity="4.7492894530296326e-01" nType="0">
            <Node pos="l" depth="3" NCoef="0" IVar="-1" Cut="0.0000000000000000e+00" cType="1" res="5.5004879832267761e-03" rms="4.3404728174209595e-01" purity="4.8614984750747681e-01" nType="-99"/>
            <Node pos="r" depth="3" NCoef="0" IVar="-1" Cut="0.0000000000000000e+00" cType="1" res="-1.2653189897537231e-01" rms="4.2953342199325562e-01" purity="3.9691019058227539e-01" nType="-99"/>
          </Node>
        </Node>
        <Node pos="r" depth="1" NCoef="0" IVar="4" Cut="2.1101939678192139e+00" cType="1" res="3.0802749097347260e-02" rms="4.1606003046035767e-01" purity="6.0934793949127197e-01" nType="0">
          <Node pos="l" depth="2" NCoef="0" IVar="3" Cut="8.0442680358886719e+01" cType="1" res="4.1684310883283615e-02" rms="4.0546187758445740e-01" purity="6.5693527460098267e-01" nType="0">
            <Node pos="l" depth="3" NCoef="0" IVar="-1" Cut="0.0000000000000000e+00" cType="1" res="3.3738490194082260e-02" rms="4.2735707759857178e-01" purity="6.5399801731109619e-01" nType="-99"/>
            <Node pos="r" depth="3" NCoef="0" IVar="-1" Cut="0.0000000000000000e+00" cType="1" res="1.7668068408966064e-01" rms="3.9170965552330017e-01" purity="6.5857589244842529e-01" nType="-99"/>
          </Node>
          <Node pos="r" depth="2" NCoef="0" IVar="9" Cut="4.4882741570472717e-01" cType="1" res="-2.8476840816438198e-03" rms="4.4556930661201477e-01" purity="4.6218746900558472e-01" nType="0">
            <Node pos="l" depth="3" NCoef="0" IVar="-1" Cut="0.0000000000000000e+00" cType="1" res="-7.7941104769706726e-02" rms="4.4053611159324646e-01" purity="4.3262541294097900e-01" nType="-99"/>
            <Node pos="r" depth="3" NCoef="0" IVar="-1" Cut="0.0000000000000000e+00" cType="1" res="7.2060473263263702e-02" rms="4.4896668195724487e-01" purity="4.9543121457099915e-01" nType="-99"/>
          </Node>
        </Node>
      </Node>
    </BinaryTree>
    <BinaryTree type="DecisionTree" boostWeight="1.0000000000000000e+00" itree="4">
      <Node pos="s" depth="0" NCoef="0" IVar="3" Cut="2.8165621948242188e+02" cType="1" res="2.8496980667114258e-04" rms="4.2833220958709717e-01" purity="5.0000000000000000e-01" nType="0">
        <Node pos="l" depth="1" NCoef="0" IVar="3" Cut="5.3093101501464844e+01" cType="1" res="3.2922208774834871e-03" rms="4.3277859687805176e-01" purity="5.1348322629928589e-01" nType="0">
          <Node pos="l" depth="2" NCoef="0" IVar="6" Cut="2.1739130020141602e+00" cType="1" res="-2.5636505335569382e-02" rms="4.5713171362876892e-01" purity="5.0776439905166626e-01" nType="0">
            <Node pos="l" depth="3" NCoef="0" IVar="-1" Cut="0.0000000000000000e+00" cType="1" res="-1.0574356466531754e-01" rms="4.6415102481842041e-01" purity="5.4747974872589111e-01" nType="-99"/>
            <Node pos="r" depth="3" NCoef="0" IVar="-1" Cut="0.0000000000000000e+00" cType="1" res="1.1162395030260086e-01" rms="4.2584702372550964e-01" purity="3.7035113573074341e-01" nType="-99"/>
          </Node>
          <Node pos="r" depth="2" NCoef="0" IVar="0" Cut="1.7966629028320312e+02" cType="1" res="1.0026745498180389e-02" rms="4.2662855982780457e-01" purity="5.1481449604034424e-01" nType="0">
            <Node pos="l" depth="3" NCoef="0" IVar="-1" Cut="0.0000000000000000e+00" cType="1" res="3.1968966126441956e-02" rms="4.3362852931022644e-01" purity="5.3335577249526978e-01" nType="-99"/>
            <Node pos="r" depth="3" NCoef="0" IVar="-1" Cut="0.0000000000000000e+00" cType="1" res="-3.8524934649467468e-01" rms="1.3199931383132935e-01" purity="1.7629552632570267e-02" nType="-99"/>
          </Node>
        </Node>
        <Node pos="r" depth="1" NCoef="0" IVar="-1" Cut="0.0000000000000000e+00" cType="1" res="-2.3686772584915161e-01" rms="3.2201343774795532e-01" purity="2.3225899040699005e-01" nType="-99"/>
      </Node>
    </BinaryTree>
    <BinaryTree type="DecisionTree" boostWeight="1.0000000000000000e+00" itree="5">
      <Node pos="s" depth="0" NCoef="0" IVar="2" Cut="2.0235073566436768e+00" cType="1" res="-3.8133311318233609e-04" rms="4.2743751406669617e-01" purity="5.0000000000000000e-01" nType="0">
        <Node pos="l" depth="1" NCoef="0" IVar="6" Cut="5.0226825475692749e-01" cType="1" res="1.4698643935844302e-03" rms="4.2771944403648376e-01" purity="5.0513517856597900e-01" nType="0">
          <Node pos="l" depth="2" NCoef="0" IVar="0" Cut="3.0299505233764648e+01" cType="1" res="-2.8972206637263298e-02" rms="4.2954435944557190e-01" purity="6.5394455194473267e-01" nType="0">
            <Node pos="l" depth="3" NCoef="0" IVar="-1" Cut="0.0000000000000000e+00" cType="1" res="-2.0339306443929672e-02" rms="4.3237221240997314e-01" purity="7.1163994073867798e-01" nType="-99"/>
            <Node pos="r" depth="3" NCoef="0" IVar="-1" Cut="0.0000000000000000e+00" cType="1" res="-2.3823297023773193e-01" rms="4.1630375385284424e-01" purity="4.9824786186218262e-01" nType="-99"/>
          </Node>
          <Node pos="r" depth="2" NCoef="0" IVar="7" Cut="2.2439885139465332e+00" cType="1" res="4.7469311393797398e-03" rms="4.2739325761795044e-01" purity="4.8911592364311218e-01" nType="0">
            <Node pos="l" depth="3" NCoef="0" IVar="-1" Cut="0.0000000000000000e+00" cType="1" res="1.3179433299228549e-03" rms="4.2752751708030701e-01" purity="4.8766282200813293e-01" nType="-99"/>
            <Node pos="r" depth="3" NCoef="0" IVar="-1" Cut="0.0000000000000000e+00" cType="1" res="7.3757059872150421e-02" rms="4.2596834897994995e-01" purity="4.9681922793388367e-01" nType="-99"/>
          </Node>
        </Node>
        <Node pos="r" depth="1" NCoef="0" IVar="-1" Cut="0.0000000000000000e+00" cType="1" res="-1.3646043837070465e-01" rms="4.1726332902908325e-01" purity="3.6745566129684448e-01" nType="-99"/>
      </Node>
    </BinaryTree>
    <BinaryTree type="DecisionTree" boostWeight="1.0000000000000000e+00" itree="6">
      <Node pos="s" depth="0" NCoef="0" IVar="9" Cut="-7.4799615144729614e-01" cType="1" res="6.6446686105336994e-05" rms="4.2684781551361084e-01" purity="5.0000000000000000e-01" nType="0">
        <Node pos="l" depth="1" NCoef="0" IVar="7" Cut="-1.4934346079826355e-01" cType="1" res="1.0471080429852009e-02" rms="4.2355671525001526e-01" purity="5.2007991075515747e-01" nType="0">
          <Node pos="l" depth="2" NCoef="0" IVar="8" Cut="-1.4982335269451141e-01" cType="1" res="-2.8937568888068199e-02" rms="4.3356630206108093e-01" purity="5.0015050172805786e-01" nType="0">
            <Node pos="l" depth="3" NCoef="0" IVar="-1" Cut="0.0000000000000000e+00" cType="1" res="-1.3248251378536224e-01" rms="4.4540071487426758e-01" purity="4.8906052112579346e-01" nType="-99"/>
            <Node pos="r" depth="3" NCoef="0" IVar="-1" Cut="0.0000000000000000e+00" cType="1" res="1.0341380722820759e-02" rms="4.1421312093734741e-01" purity="5.1569968461990356e-01" nType="-99"/>
          </Node>
          <Node pos="r" depth="2" NCoef="0" IVar="6" Cut="1.6299875974655151e+00" cType="1" res="2.4793896824121475e-02" rms="4.1894218325614929e-01" purity="5.2732306718826294e-01" nType="0">
            <Node pos="l" depth="3" NCoef="0" IVar="-1" Cut="0.0000000000000000e+00" cType="1" res="9.7954235970973969e-02" rms="4.3094140291213989e-01" purity="6.1914128065109253e-01" nType="-99"/>
            <Node pos="r" depth="3" NCoef="0" IVar="-1" Cut="0.0000000000000000e+00" cType="1" res="-3.3672365825623274e-03" rms="3.9294746518135071e-01" purity="3.4639474749565125e-01" nType="-99"/>
          </Node>
        </Node>
        <Node pos="r" depth="1" NCoef="0" IVar="7" Cut="-4.4879770278930664e-01" cType="1" res="-6.5624620765447617e-03" rms="4.2879977822303772e-01" purity="4.8720684647560120e-01" nType="0">
          <Node pos="l" depth="2" NCoef="0" IVar="2" Cut="-5.9451729059219360e-01" cType="1" res="8.5174404084682465e-03" rms="4.2313912510871887e-01" purity="4.9720019102096558e-01" nType="0">
            <Node pos="l" depth="3" NCoef="0" IVar="-1" Cut="0.0000000000000000e+00" cType="1" res="-3.7652455270290375e-02" rms="4.2104500532150269e-01" purity="4.6184784173965454e-01" nType="-99"/>
            <Node pos="r" depth="3" NCoef="0" IVar="-1" Cut="0.0000000000000000e+00" cType="1" res="5.1319785416126251e-02" rms="4.2370152473449707e-01" purity="5.1312565803527832e-01" nType="-99"/>
          </Node>
          <Node pos="r" depth="2" NCoef="0" IVar="7" Cut="1.7738450765609741e+00" cType="1" res="-2.5759616866707802e-02" rms="4.3514421582221985e-01" purity="4.7448500990867615e-01" nType="0">
            <Node pos="l" depth="3" NCoef="0" IVar="-1" Cut="0.0000000000000000e+00" cType="1" res="-1.2496762722730637e-01" rms="4.3286538124084473e-01" purity="4.6491008996963501e-01" nType="-99"/>
            <Node pos="r" depth="3" NCoef="0" IVar="-1" Cut="0.0000000000000000e+00" cType="1" res="-8.1255016848444939e-03" rms="4.3649381399154663e-01" purity="4.8498466610908508e-01" nType="-99"/>
          </Node>
        </Node>
      </Node>
    </BinaryTree>
    <BinaryTree type="DecisionTree" boostWeight="1.0000000000000000e+00" itree="7">
      <Node pos="s" depth="0" NCoef="0" IVar="9" Cut="1.3463931083679199e+00" cType="1" res="2.4930946528911591e-04" rms="4.2584830522537231e-01" purity="5.0000000000000000e-01" nType="0">
        <Node pos="l" depth="1" NCoef="0" IVar="8" Cut="-1.6455916166305542e+00" cType="1" res="-7.1577234193682671e-03" rms="4.2398107051849365e-01" purity="4.9118241667747498e-01" nType="0">
          <Node pos="l" depth="2" NCoef="0" IVar="0" Cut="6.5020141601562500e+01" cType="1" res="9.5903621986508369e-03" rms="4.2361840605735779e-01" purity="5.0389778614044189e-01" nType="0">
            <Node pos="l" depth="3" NCoef="0" IVar="-1" Cut="0.0000000000000000e+00" cType="1" res="6.3103437423706055e-02" rms="4.5384591817855835e-01" purity="6.6417074203491211e-01" nType="-99"/>
            <Node pos="r" depth="3" NCoef="0" IVar="-1" Cut="0.0000000000000000e+00" cType="1" res="-8.5307277739048004e-02" rms="3.5455146431922913e-01" purity="1.8858775496482849e-01" nType="-99"/>
          </Node>
          <Node pos="r" depth="2" NCoef="0" IVar="9" Cut="-1.4319726228713989e+00" cType="1" res="-1.3228189200162888e-02" rms="4.2394912242889404e-01" purity="4.8657369613647461e-01" nType="0">
            <Node pos="l" depth="3" NCoef="0" IVar="-1" Cut="0.0000000000000000e+00" cType="1" res="1.8706686794757843e-02" rms="4.1952529549598694e-01" purity="5.4987078905105591e-01" nType="-99"/>
            <Node pos="r" depth="3" NCoef="0" IVar="-1" Cut="0.0000000000000000e+00" cType="1" res="-8.2272037863731384e-02" rms="4.2682793736457825e-01" purity="4.3502402305603027e-01" nType="-99"/>
          </Node>
        </Node>
        <Node pos="r" depth="1" NCoef="0" IVar="0" Cut="6.2109474182128906e+01" cType="1" res="1.8320308998227119e-02" rms="4.2983463406562805e-01" purity="5.2151232957839966e-01" nType="0">
          <Node pos="l" depth="2" NCoef="0" IVar="5" Cut="1.3729836940765381e+00" cType="1" res="3.6102488636970520e-02" rms="4.5474863052368164e-01" purity="6.6927808523178101e-01" nType="0">
            <Node pos="l" depth="3" NCoef="0" IVar="-1" Cut="0.0000000000000000e+00" cType="1" res="-4.7225069254636765e-02" rms="4.8964866995811462e-01" purity="4.9815881252288818e-01" nType="-99"/>
            <Node pos="r" depth="3" NCoef="0" IVar="-1" Cut="0.0000000000000000e+00" cType="1" res="1.1436489224433899e-01" rms="4.4720169901847839e-01" purity="7.0076632499694824e-01" nType="-99"/>
          </Node>
          <Node pos="r" depth="2" NCoef="0" IVar="6" Cut="1.5306924581527710e+00" cType="1" res="-1.5867428854107857e-02" rms="3.7498021125793457e-01" purity="2.3742017149925232e-01" nType="0">
            <Node pos="l" depth="3" NCoef="0" IVar="-1" Cut="0.0000000000000000e+00" cType="1" res="-2.5462812185287476e-01" rms="3.6440175771713257e-01" purity="1.9107021391391754e-01" nType="-99"/>
            <Node pos="r" depth="3" NCoef="0" IVar="-1" Cut="0.0000000000000000e+00" cType="1" res="3.2472271472215652e-02" rms="3.7636679410934448e-01" purity="2.5632619857788086e-01" nType="-99"/>
          </Node>
        </Node>
      </Node>
    </BinaryTree>
    <BinaryTree type="DecisionTree" boostWeight="1.0000000000000000e+00" itree="8">
      <Node pos="s" depth="0" NCoef="0" IVar="4" Cut="6.1387211084365845e-01" cType="1" res="6.6608663473743945e-05" rms="4.2466560006141663e-01" purity="5.0000000000000000e-01" nType="0">
        <Node pos="l" depth="1" NCoef="0" IVar="6" Cut="1.4527473449707031e+00" cType="1" res="2.8493111953139305e-02" rms="4.0555599331855774e-01" purity="5.6844270229339600e-01" nType="0">
          <Node pos="l" depth="2" NCoef="0" IVar="-1" Cut="0.0000000000000000e+00" cType="1" res="1.5024963021278381e-01" rms="4.1477617621421814e-01" purity="6.7771810293197632e-01" nType="-99"/>
          <Node pos="r" depth="2" NCoef="0" IVar="-1" Cut="0.0000000000000000e+00" cType="1" res="-5.1260691136121750e-02" rms="3.8428607583045959e-01" purity="3.7003824114799500e-01" nType="-99"/>
        </Node>
        <Node pos="r" depth="1" NCoef="0" IVar="6" Cut="2.1539738178253174e+00" cType="1" res="-2.3142520803958178e-03" rms="4.2614117264747620e-01" purity="4.9426755309104919e-01" nType="0">
          <Node pos="l" depth="2" NCoef="0" IVar="0" Cut="9.7840606689453125e+01" cType="1" res="-6.2533426098525524e-03" rms="4.3300020694732666e-01" purity="5.3165477514266968e-01" nType="0">
            <Node pos="l" depth="3" NCoef="0" IVar="-1" Cut="0.0000000000000000e+00" cType="1" res="-2.4353121407330036e-03" rms="4.5371618866920471e-01" purity="5.9126186370849609e-01" nType="-99"/>
            <Node pos="r" depth="3" NCoef="0" IVar="-1" Cut="0.0000000000000000e+00" cType="1" res="-3.4394669532775879e-01" rms="1.7851135134696960e-01" purity="3.3738277852535248e-02" nType="-99"/>
          </Node>
          <Node pos="r" depth="2" NCoef="0" IVar="6" Cut="2.8281443119049072e+00" cType="1" res="1.9261395558714867e-02" rms="3.8570538163185120e-01" purity="2.8948616981506348e-01" nType="0">
            <Node pos="l" depth="3" NCoef="0" IVar="-1" Cut="0.0000000000000000e+00" cType="1" res="1.0238672792911530e-01" rms="4.0185719728469849e-01" purity="3.2240310311317444e-01" nType="-99"/>
            <Node pos="r" depth="3" NCoef="0" IVar="-1" Cut="0.0000000000000000e+00" cType="1" res="-7.9345792531967163e-02" rms="3.2112106680870056e-01" purity="1.7588469386100769e-01" nType="-99"/>
          </Node>
        </Node>
      </Node>
    </BinaryTree>
    <BinaryTree type="DecisionTree" boostWeight="1.0000000000000000e+00" itree="9">
      <Node pos="s" depth="0" NCoef="0" IVar="1" Cut="1.7834123373031616e+00" cType="1" res="-9.5173052977770567e-04" rms="4.2395725846290588e-01" purity="5.0000000000000000e-01" nType="0">
        <Node pos="l" depth="1" NCoef="0" IVar="1" Cut="-1.6829659938812256e+00" cType="1" res="9.0705126058310270e-04" rms="4.2337700724601746e-01" purity="5.0490099191665649e-01" nType="0">
          <Node pos="l" depth="2" NCoef="0" IVar="5" Cut="2.1483523845672607e+00" cType="1" res="-3.0926365405321121e-02" rms="4.2305225133895874e-01" purity="4.3251699209213257e-01" nType="0">
            <Node pos="l" depth="3" NCoef="0" IVar="-1" Cut="0.0000000000000000e+00" cType="1" res="3.5671191290020943e-03" rms="4.2198300361633301e-01" purity="3.8537141680717468e-01" nType="-99"/>
            <Node pos="r" depth="3" NCoef="0" IVar="-1" Cut="0.0000000000000000e+00" cType="1" res="-1.8203420937061310e-01" rms="4.2194670438766479e-01" purity="4.7433188557624817e-01" nType="-99"/>
          </Node>
          <Node pos="r" depth="2" NCoef="0" IVar="5" Cut="1.1508948802947998e+00" cType="1" res="3.2980428077280521e-03" rms="4.2330473661422729e-01" purity="5.1033765077590942e-01" nType="0">
            <Node pos="l" depth="3" NCoef="0" IVar="-1" Cut="0.0000000000000000e+00" cType="1" res="-5.1444925367832184e-02" rms="4.1034856438636780e-01" purity="3.4765976667404175e-01" nType="-99"/>
            <Node pos="r" depth="3" NCoef="0" IVar="-1" Cut="0.0000000000000000e+00" cType="1" res="2.0274162292480469e-02" rms="4.2544603347778320e-01" purity="5.3916853666305542e-01" nType="-99"/>
          </Node>
        </Node>
        <Node pos="r" depth="1" NCoef="0" IVar="5" Cut="2.2994430065155029e+00" cType="1" res="-3.4591261297464371e-02" rms="4.3294796347618103e-01" purity="4.1130462288856506e-01" nType="0">
          <Node pos="l" depth="2" NCoef="0" IVar="-1" Cut="0.0000000000000000e+00" cType="1" res="-1.6976905986666679e-02" rms="4.3355679512023926e-01" purity="3.7181070446968079e-01" nType="-99"/>
          <Node pos="r" depth="2" NCoef="0" IVar="-1" Cut="0.0000000000000000e+00" cType="1" res="-1.9410462677478790e-01" rms="4.3021339178085327e-01" purity="4.5330837368965149e-01" nType="-99"/>
        </Node>
      </Node>
    </BinaryTree>
  </Weights>
</MethodSetup>
