<?xml version="1.0"?>
<MethodSetup Method="BDT::BDT2_10_Grad">
  <GeneralInfo>
    <Info name="TMVA Release" value="4.2.1 [262657]"/>
    <Info name="ROOT Release" value="6.24/00 [399360]"/>
    <Info name="Creator" value="root"/>
    <Info name="Date" value="Sun Jul 18 20:03:16 2021"/>
    <Info name="Host" value="Linux 3bfcc9c0a42a 4.15.0-1111-azure #123~16.04.1-Ubuntu SMP Sat Mar 20 01:52:07 UTC 2021 x86_64 x86_64 x86_64 GNU/Linux"/>
    <Info name="Dir" value="/root"/>
    <Info name="Training events" value="137141"/>
    <Info name="TrainingTime" value="1.21914220e+00"/>
    <Info name="AnalysisType" value="Classification"/>
  </GeneralInfo>
  <Options>
    <Option name="V" modified="Yes">False</Option>
    <Option name="VerbosityLevel" modified="No">Default</Option>
    <Option name="VarTransform" modified="No">None</Option>
    <Option name="H" modified="No">False</Option>
    <Option name="CreateMVAPdfs" modified="No">False</Option>
    <Option name="IgnoreNegWeightsInTraining" modified="No">False</Option>
    <Option name="NTrees" modified="Yes">10</Option>
    <Option name="MaxDepth" modified="Yes">3</Option>
    <Option name="MinNodeSize" modified="Yes">2.5%</Option>
    <Option name="nCuts" modified="No">20</Option>
    <Option name="BoostType" modified="Yes">Grad</Option>
    <Option name="AdaBoostR2Loss" modified="No">quadratic</Option>
    <Option name="UseBaggedBoost" modified="No">False</Option>
    <Option name="Shrinkage" modified="No">1.000000e+00</Option>
    <Option name="AdaBoostBeta" modified="No">5.000000e-01</Option>
    <Option name="UseRandomisedTrees" modified="No">False</Option>
    <Option name="UseNvars" modified="No">3</Option>
    <Option name="UsePoissonNvars" modified="No">True</Option>
    <Option name="BaggedSampleFraction" modified="No">6.000000e-01</Option>
    <Option name="UseYesNoLeaf" modified="No">True</Option>
    <Option name="NegWeightTreatment" modified="No">pray</Option>
    <Option name="Css" modified="No">1.000000e+00</Option>
    <Option name="Cts_sb" modified="No">1.000000e+00</Option>
    <Option name="Ctb_ss" modified="No">1.000000e+00</Option>
    <Option name="Cbb" modified="No">1.000000e+00</Option>
    <Option name="NodePurityLimit" modified="No">5.000000e-01</Option>
    <Option name="SeparationType" modified="Yes">sdivsqrtsplusb</Option>
    <Option name="RegressionLossFunctionBDTG" modified="No">huber</Option>
    <Option name="HuberQuantile" modified="No">7.000000e-01</Option>
    <Option name="DoBoostMonitor" modified="No">False</Option>
    <Option name="UseFisherCuts" modified="No">False</Option>
    <Option name="MinLinCorrForFisher" modified="No">8.000000e-01</Option>
    <Option name="UseExclusiveVars" modified="No">False</Option>
    <Option name="DoPreselection" modified="No">False</Option>
    <Option name="SigToBkgFraction" modified="No">1.000000e+00</Option>
    <Option name="PruneMethod" modified="No">nopruning</Option>
    <Option name="PruneStrength" modified="No">0.000000e+00</Option>
    <Option name="PruningValFraction" modified="No">5.000000e-01</Option>
    <Option name="SkipNormalization" modified="No">False</Option>
    <Option name="nEventsMin" modified="No">0</Option>
    <Option name="UseBaggedGrad" modified="No">False</Option>
    <Option name="GradBaggingFraction" modified="No">6.000000e-01</Option>
    <Option name="UseNTrainEvents" modified="No">0</Option>
    <Option name="NNodesMax" modified="No">0</Option>
  </Options>
  <Variables NVar="7">
    <Variable VarIndex="0" Expression="max_eta" Label="max_eta" Title="max_eta" Unit="" Internal="max_eta" Type="F" Min="6.06918335e-03" Max="2.49267578e+00"/>
    <Variable VarIndex="1" Expression="lep_eta1" Label="lep_eta1" Title="lep_eta1" Unit="" Internal="lep_eta1" Type="F" Min="-2.49169922e+00" Max="2.49267578e+00"/>
    <Variable VarIndex="2" Expression="inv_m" Label="inv_m" Title="inv_m" Unit="" Internal="inv_m" Type="F" Min="1.50092745e+01" Max="1.82872693e+03"/>
    <Variable VarIndex="3" Expression="dRHJ" Label="dRHJ" Title="dRHJ" Unit="" Internal="dRHJ" Type="F" Min="4.00012076e-01" Max="4.19309711e+00"/>
    <Variable VarIndex="4" Expression="dRLJ" Label="dRLJ" Title="dRLJ" Unit="" Internal="dRLJ" Type="F" Min="4.00010526e-01" Max="4.04821348e+00"/>
    <Variable VarIndex="5" Expression="dPhi0" Label="dPhi0" Title="dPhi0" Unit="" Internal="dPhi0" Type="F" Min="-3.14158392e+00" Max="3.14149237e+00"/>
    <Variable VarIndex="6" Expression="dPhi1" Label="dPhi1" Title="dPhi1" Unit="" Internal="dPhi1" Type="F" Min="-3.14158392e+00" Max="3.14158392e+00"/>
  </Variables>
  <Spectators NSpec="0"/>
  <Classes NClass="2">
    <Class Name="Signal" Index="0"/>
    <Class Name="Background" Index="1"/>
  </Classes>
  <Transformations NTransformations="0"/>
  <MVAPdfs/>
  <Weights NTrees="10" AnalysisType="1">
    <BinaryTree type="DecisionTree" boostWeight="1.0000000000000000e+00" itree="0">
      <Node pos="s" depth="0" NCoef="0" IVar="2" Cut="1.8774429321289062e+02" cType="1" res="3.2122887417839437e-17" rms="5.0000000000000000e-01" purity="5.0000000000000000e-01" nType="0">
        <Node pos="l" depth="1" NCoef="0" IVar="3" Cut="1.6242299079895020e+00" cType="1" res="4.2247533798217773e-02" rms="4.9821195006370544e-01" purity="5.4224753379821777e-01" nType="0">
          <Node pos="l" depth="2" NCoef="0" IVar="2" Cut="1.2193760681152344e+02" cType="1" res="6.2455728650093079e-02" rms="4.9608394503593445e-01" purity="5.6245571374893188e-01" nType="0">
            <Node pos="l" depth="3" NCoef="0" IVar="-1" Cut="0.0000000000000000e+00" cType="1" res="1.6849035024642944e-01" rms="4.9285164475440979e-01" purity="5.8424514532089233e-01" nType="-99"/>
            <Node pos="r" depth="3" NCoef="0" IVar="-1" Cut="0.0000000000000000e+00" cType="1" res="1.8915699329227209e-03" rms="4.9999910593032837e-01" purity="5.0094574689865112e-01" nType="-99"/>
          </Node>
          <Node pos="r" depth="2" NCoef="0" IVar="3" Cut="1.9739576578140259e+00" cType="1" res="-6.0382373631000519e-02" rms="4.9634057283401489e-01" purity="4.3961760401725769e-01" nType="0">
            <Node pos="l" depth="3" NCoef="0" IVar="-1" Cut="0.0000000000000000e+00" cType="1" res="-3.8449130952358246e-02" rms="4.9963027238845825e-01" purity="4.8077544569969177e-01" nType="-99"/>
            <Node pos="r" depth="3" NCoef="0" IVar="-1" Cut="0.0000000000000000e+00" cType="1" res="-2.4986515939235687e-01" rms="4.8414030671119690e-01" purity="3.7506744265556335e-01" nType="-99"/>
          </Node>
        </Node>
        <Node pos="r" depth="1" NCoef="0" IVar="2" Cut="2.6588787841796875e+02" cType="1" res="-2.0244243741035461e-01" rms="4.5718383789062500e-01" purity="2.9755756258964539e-01" nType="0">
          <Node pos="l" depth="2" NCoef="0" IVar="3" Cut="1.1225044727325439e+00" cType="1" res="-1.4054226875305176e-01" rms="4.7984150052070618e-01" purity="3.5945770144462585e-01" nType="0">
            <Node pos="l" depth="3" NCoef="0" IVar="-1" Cut="0.0000000000000000e+00" cType="1" res="-1.8271303176879883e-01" rms="4.9158313870429993e-01" purity="4.0864348411560059e-01" nType="-99"/>
            <Node pos="r" depth="3" NCoef="0" IVar="-1" Cut="0.0000000000000000e+00" cType="1" res="-4.1643461585044861e-01" rms="4.5458284020423889e-01" purity="2.9178270697593689e-01" nType="-99"/>
          </Node>
          <Node pos="r" depth="2" NCoef="0" IVar="3" Cut="1.1045759916305542e+00" cType="1" res="-2.8700006008148193e-01" rms="4.0942761301994324e-01" purity="2.1299993991851807e-01" nType="0">
            <Node pos="l" depth="3" NCoef="0" IVar="-1" Cut="0.0000000000000000e+00" cType="1" res="-4.5183414220809937e-01" rms="4.4605097174644470e-01" purity="2.7408292889595032e-01" nType="-99"/>
            <Node pos="r" depth="3" NCoef="0" IVar="-1" Cut="0.0000000000000000e+00" cType="1" res="-7.3648208379745483e-01" rms="3.3822852373123169e-01" purity="1.3175894320011139e-01" nType="-99"/>
          </Node>
        </Node>
      </Node>
    </BinaryTree>
    <BinaryTree type="DecisionTree" boostWeight="1.0000000000000000e+00" itree="1">
      <Node pos="s" depth="0" NCoef="0" IVar="4" Cut="1.4423542022705078e+00" cType="1" res="-2.5693255010992289e-03" rms="4.8677244782447815e-01" purity="5.0000000000000000e-01" nType="0">
        <Node pos="l" depth="1" NCoef="0" IVar="0" Cut="1.7832173109054565e+00" cType="1" res="1.5130341984331608e-02" rms="4.8646524548530579e-01" purity="5.2074038982391357e-01" nType="0">
          <Node pos="l" depth="2" NCoef="0" IVar="4" Cut="7.4744874238967896e-01" cType="1" res="3.0880710110068321e-02" rms="4.8735356330871582e-01" purity="5.4555296897888184e-01" nType="0">
            <Node pos="l" depth="3" NCoef="0" IVar="-1" Cut="0.0000000000000000e+00" cType="1" res="1.3171356916427612e-01" rms="4.8540458083152771e-01" purity="5.7204705476760864e-01" nType="-99"/>
            <Node pos="r" depth="3" NCoef="0" IVar="-1" Cut="0.0000000000000000e+00" cType="1" res="3.0223729088902473e-02" rms="4.8752814531326294e-01" purity="5.3209298849105835e-01" nType="-99"/>
          </Node>
          <Node pos="r" depth="2" NCoef="0" IVar="0" Cut="2.1887207031250000e+00" cType="1" res="-4.5081242918968201e-02" rms="4.7829657793045044e-01" purity="4.2588496208190918e-01" nType="0">
            <Node pos="l" depth="3" NCoef="0" IVar="-1" Cut="0.0000000000000000e+00" cType="1" res="-5.7165037840604782e-02" rms="4.8182913661003113e-01" purity="4.4928285479545593e-01" nType="-99"/>
            <Node pos="r" depth="3" NCoef="0" IVar="-1" Cut="0.0000000000000000e+00" cType="1" res="-2.0556992292404175e-01" rms="4.6484401822090149e-01" purity="3.6183339357376099e-01" nType="-99"/>
          </Node>
        </Node>
        <Node pos="r" depth="1" NCoef="0" IVar="5" Cut="1.9446066617965698e+00" cType="1" res="-5.9881865978240967e-02" rms="4.8333880305290222e-01" purity="4.3284150958061218e-01" nType="0">
          <Node pos="l" depth="2" NCoef="0" IVar="5" Cut="-1.6884639263153076e+00" cType="1" res="-7.5215369462966919e-02" rms="4.8180368542671204e-01" purity="4.1484224796295166e-01" nType="0">
            <Node pos="l" depth="3" NCoef="0" IVar="-1" Cut="0.0000000000000000e+00" cType="1" res="-5.4412279278039932e-02" rms="4.8428082466125488e-01" purity="4.7826898097991943e-01" nType="-99"/>
            <Node pos="r" depth="3" NCoef="0" IVar="-1" Cut="0.0000000000000000e+00" cType="1" res="-1.9622513651847839e-01" rms="4.7965288162231445e-01" purity="3.9181324839591980e-01" nType="-99"/>
          </Node>
          <Node pos="r" depth="2" NCoef="0" IVar="-1" Cut="0.0000000000000000e+00" cType="1" res="1.3486201874911785e-02" rms="4.8436465859413147e-01" purity="5.1069855690002441e-01" nType="-99"/>
        </Node>
      </Node>
    </BinaryTree>
    <BinaryTree type="DecisionTree" boostWeight="1.0000000000000000e+00" itree="2">
      <Node pos="s" depth="0" NCoef="0" IVar="3" Cut="7.6125824451446533e-01" cType="1" res="-1.6035538283176720e-04" rms="4.8406675457954407e-01" purity="5.0000000000000000e-01" nType="0">
        <Node pos="l" depth="1" NCoef="0" IVar="5" Cut="2.2437944412231445e+00" cType="1" res="2.9343215748667717e-02" rms="4.8553308844566345e-01" purity="5.5219459533691406e-01" nType="0">
          <Node pos="l" depth="2" NCoef="0" IVar="5" Cut="-2.3723342418670654e+00" cType="1" res="1.6453456133604050e-02" rms="4.8695456981658936e-01" purity="5.3742134571075439e-01" nType="0">
            <Node pos="l" depth="3" NCoef="0" IVar="-1" Cut="0.0000000000000000e+00" cType="1" res="1.6354897618293762e-01" rms="4.8001804947853088e-01" purity="6.0512143373489380e-01" nType="-99"/>
            <Node pos="r" depth="3" NCoef="0" IVar="-1" Cut="0.0000000000000000e+00" cType="1" res="8.3921905606985092e-03" rms="4.8739761114120483e-01" purity="5.2374196052551270e-01" nType="-99"/>
          </Node>
          <Node pos="r" depth="2" NCoef="0" IVar="-1" Cut="0.0000000000000000e+00" cType="1" res="1.9377267360687256e-01" rms="4.7340270876884460e-01" purity="6.2484019994735718e-01" nType="-99"/>
        </Node>
        <Node pos="r" depth="1" NCoef="0" IVar="6" Cut="-2.2439885139465332e+00" cType="1" res="-1.0590217076241970e-02" rms="4.8311644792556763e-01" purity="4.8154863715171814e-01" nType="0">
          <Node pos="l" depth="2" NCoef="0" IVar="5" Cut="-4.4908794760704041e-01" cType="1" res="3.1313002109527588e-02" rms="4.8064318299293518e-01" purity="5.3026258945465088e-01" nType="0">
            <Node pos="l" depth="3" NCoef="0" IVar="-1" Cut="0.0000000000000000e+00" cType="1" res="-5.2041739225387573e-02" rms="4.8697024583816528e-01" purity="4.8323729634284973e-01" nType="-99"/>
            <Node pos="r" depth="3" NCoef="0" IVar="-1" Cut="0.0000000000000000e+00" cType="1" res="1.2705250084400177e-01" rms="4.7495746612548828e-01" purity="5.5389314889907837e-01" nType="-99"/>
          </Node>
          <Node pos="r" depth="2" NCoef="0" IVar="6" Cut="1.8593308925628662e+00" cType="1" res="-1.7377056181430817e-02" rms="4.8317402601242065e-01" purity="4.7365868091583252e-01" nType="0">
            <Node pos="l" depth="3" NCoef="0" IVar="-1" Cut="0.0000000000000000e+00" cType="1" res="-5.8516301214694977e-02" rms="4.8220685124397278e-01" purity="4.6247160434722900e-01" nType="-99"/>
            <Node pos="r" depth="3" NCoef="0" IVar="-1" Cut="0.0000000000000000e+00" cType="1" res="3.4941662102937698e-02" rms="4.8490476608276367e-01" purity="5.1139992475509644e-01" nType="-99"/>
          </Node>
        </Node>
      </Node>
    </BinaryTree>
    <BinaryTree type="DecisionTree" boostWeight="1.0000000000000000e+00" itree="3">
      <Node pos="s" depth="0" NCoef="0" IVar="2" Cut="3.6047930908203125e+02" cType="1" res="1.5666110266465694e-04" rms="4.8275575041770935e-01" purity="5.0000000000000000e-01" nType="0">
        <Node pos="l" depth="1" NCoef="0" IVar="1" Cut="1.5432710647583008e+00" cType="1" res="2.9370391275733709e-03" rms="4.8601430654525757e-01" purity="5.1083678007125854e-01" nType="0">
          <Node pos="l" depth="2" NCoef="0" IVar="1" Cut="-1.1467285156250000e+00" cType="1" res="6.5381592139601707e-03" rms="4.8611366748809814e-01" purity="5.2004987001419067e-01" nType="0">
            <Node pos="l" depth="3" NCoef="0" IVar="-1" Cut="0.0000000000000000e+00" cType="1" res="-3.7786856293678284e-02" rms="4.8609578609466553e-01" purity="4.6305358409881592e-01" nType="-99"/>
            <Node pos="r" depth="3" NCoef="0" IVar="-1" Cut="0.0000000000000000e+00" cType="1" res="2.7056582272052765e-02" rms="4.8592314124107361e-01" purity="5.3470134735107422e-01" nType="-99"/>
          </Node>
          <Node pos="r" depth="2" NCoef="0" IVar="0" Cut="2.1310687065124512e+00" cType="1" res="-2.7679346501827240e-02" rms="4.8408770561218262e-01" purity="4.3250778317451477e-01" nType="0">
            <Node pos="l" depth="3" NCoef="0" IVar="-1" Cut="0.0000000000000000e+00" cType="1" res="-3.3572629094123840e-02" rms="4.8827114701271057e-01" purity="4.6083021163940430e-01" nType="-99"/>
            <Node pos="r" depth="3" NCoef="0" IVar="-1" Cut="0.0000000000000000e+00" cType="1" res="-1.4037102460861206e-01" rms="4.6938249468803406e-01" purity="3.4689477086067200e-01" nType="-99"/>
          </Node>
        </Node>
        <Node pos="r" depth="1" NCoef="0" IVar="-1" Cut="0.0000000000000000e+00" cType="1" res="-2.5650358200073242e-01" rms="3.5001328587532043e-01" purity="1.4918848872184753e-01" nType="-99"/>
      </Node>
    </BinaryTree>
    <BinaryTree type="DecisionTree" boostWeight="1.0000000000000000e+00" itree="4">
      <Node pos="s" depth="0" NCoef="0" IVar="5" Cut="1.6455218791961670e+00" cType="1" res="-3.7308255559764802e-04" rms="4.8217752575874329e-01" purity="5.0000000000000000e-01" nType="0">
        <Node pos="l" depth="1" NCoef="0" IVar="6" Cut="1.0471946001052856e+00" cType="1" res="-5.8955256827175617e-03" rms="4.8204013705253601e-01" purity="4.8721301555633545e-01" nType="0">
          <Node pos="l" depth="2" NCoef="0" IVar="5" Cut="-2.2297568321228027e+00" cType="1" res="-2.0090427249670029e-02" rms="4.8224490880966187e-01" purity="4.6850022673606873e-01" nType="0">
            <Node pos="l" depth="3" NCoef="0" IVar="-1" Cut="0.0000000000000000e+00" cType="1" res="5.9696026146411896e-02" rms="4.8243018984794617e-01" purity="5.3622734546661377e-01" nType="-99"/>
            <Node pos="r" depth="3" NCoef="0" IVar="-1" Cut="0.0000000000000000e+00" cType="1" res="-6.8952135741710663e-02" rms="4.8147186636924744e-01" purity="4.5176154375076294e-01" nType="-99"/>
          </Node>
          <Node pos="r" depth="2" NCoef="0" IVar="5" Cut="4.9717426300048828e-02" cType="1" res="2.0226823166012764e-02" rms="4.8056858777999878e-01" purity="5.2164947986602783e-01" nType="0">
            <Node pos="l" depth="3" NCoef="0" IVar="-1" Cut="0.0000000000000000e+00" cType="1" res="9.2665672302246094e-02" rms="4.8002839088439941e-01" purity="5.4450547695159912e-01" nType="-99"/>
            <Node pos="r" depth="3" NCoef="0" IVar="-1" Cut="0.0000000000000000e+00" cType="1" res="-7.5579807162284851e-02" rms="4.7739455103874207e-01" purity="4.6571257710456848e-01" nType="-99"/>
          </Node>
        </Node>
        <Node pos="r" depth="1" NCoef="0" IVar="6" Cut="4.4903427362442017e-01" cType="1" res="1.8342105671763420e-02" rms="4.8217266798019409e-01" purity="5.4333412647247314e-01" nType="0">
          <Node pos="l" depth="2" NCoef="0" IVar="6" Cut="-2.1151995658874512e+00" cType="1" res="5.4651085287332535e-02" rms="4.7656720876693726e-01" purity="5.7458436489105225e-01" nType="0">
            <Node pos="l" depth="3" NCoef="0" IVar="-1" Cut="0.0000000000000000e+00" cType="1" res="-2.9630674049258232e-02" rms="4.7823482751846313e-01" purity="5.7244193553924561e-01" nType="-99"/>
            <Node pos="r" depth="3" NCoef="0" IVar="-1" Cut="0.0000000000000000e+00" cType="1" res="1.5373407304286957e-01" rms="4.7474288940429688e-01" purity="5.7509112358093262e-01" nType="-99"/>
          </Node>
          <Node pos="r" depth="2" NCoef="0" IVar="2" Cut="6.5987609863281250e+01" cType="1" res="-6.3186690211296082e-02" rms="4.8471704125404358e-01" purity="4.7316446900367737e-01" nType="0">
            <Node pos="l" depth="3" NCoef="0" IVar="-1" Cut="0.0000000000000000e+00" cType="1" res="-2.8443925082683563e-02" rms="4.9027439951896667e-01" purity="5.7220828533172607e-01" nType="-99"/>
            <Node pos="r" depth="3" NCoef="0" IVar="-1" Cut="0.0000000000000000e+00" cType="1" res="-2.1357810497283936e-01" rms="4.7762194275856018e-01" purity="4.0310192108154297e-01" nType="-99"/>
          </Node>
        </Node>
      </Node>
    </BinaryTree>
    <BinaryTree type="DecisionTree" boostWeight="1.0000000000000000e+00" itree="5">
      <Node pos="s" depth="0" NCoef="0" IVar="6" Cut="-2.5431869029998779e+00" cType="1" res="8.9068525994662195e-05" rms="4.8007124662399292e-01" purity="5.0000000000000000e-01" nType="0">
        <Node pos="l" depth="1" NCoef="0" IVar="6" Cut="-2.8851315975189209e+00" cType="1" res="4.2954921722412109e-02" rms="4.8042061924934387e-01" purity="5.4853093624114990e-01" nType="0">
          <Node pos="l" depth="2" NCoef="0" IVar="-1" Cut="0.0000000000000000e+00" cType="1" res="1.3618047535419464e-01" rms="4.7832629084587097e-01" purity="5.6780099868774414e-01" nType="-99"/>
          <Node pos="r" depth="2" NCoef="0" IVar="-1" Cut="0.0000000000000000e+00" cType="1" res="5.7492520660161972e-02" rms="4.8151972889900208e-01" purity="5.3264516592025757e-01" nType="-99"/>
        </Node>
        <Node pos="r" depth="1" NCoef="0" IVar="5" Cut="4.4874539971351624e-01" cType="1" res="-4.3210233561694622e-03" rms="4.7981807589530945e-01" purity="4.9500706791877747e-01" nType="0">
          <Node pos="l" depth="2" NCoef="0" IVar="6" Cut="-1.0673189163208008e-01" cType="1" res="-1.3013740070164204e-02" rms="4.7996091842651367e-01" purity="4.8466587066650391e-01" nType="0">
            <Node pos="l" depth="3" NCoef="0" IVar="-1" Cut="0.0000000000000000e+00" cType="1" res="-1.0342820733785629e-01" rms="4.7963333129882812e-01" purity="4.2834493517875671e-01" nType="-99"/>
            <Node pos="r" depth="3" NCoef="0" IVar="-1" Cut="0.0000000000000000e+00" cType="1" res="1.3023659586906433e-02" rms="4.7908082604408264e-01" purity="5.1554054021835327e-01" nType="-99"/>
          </Node>
          <Node pos="r" depth="2" NCoef="0" IVar="6" Cut="-9.1881084442138672e-01" cType="1" res="7.7140536159276962e-03" rms="4.7936010360717773e-01" purity="5.0932449102401733e-01" nType="0">
            <Node pos="l" depth="3" NCoef="0" IVar="-1" Cut="0.0000000000000000e+00" cType="1" res="1.1421183496713638e-01" rms="4.7676837444305420e-01" purity="5.6605023145675659e-01" nType="-99"/>
            <Node pos="r" depth="3" NCoef="0" IVar="-1" Cut="0.0000000000000000e+00" cType="1" res="-3.4196812659502029e-02" rms="4.7908058762550354e-01" purity="4.7934967279434204e-01" nType="-99"/>
          </Node>
        </Node>
      </Node>
    </BinaryTree>
    <BinaryTree type="DecisionTree" boostWeight="1.0000000000000000e+00" itree="6">
      <Node pos="s" depth="0" NCoef="0" IVar="2" Cut="1.0137678527832031e+02" cType="1" res="3.6849021853413433e-05" rms="4.7889906167984009e-01" purity="5.0000000000000000e-01" nType="0">
        <Node pos="l" depth="1" NCoef="0" IVar="2" Cut="7.6699539184570312e+01" cType="1" res="1.5274186618626118e-02" rms="4.8549774289131165e-01" purity="5.6526356935501099e-01" nType="0">
          <Node pos="l" depth="2" NCoef="0" IVar="3" Cut="1.6063189506530762e+00" cType="1" res="2.8160883113741875e-02" rms="4.8644489049911499e-01" purity="5.7003563642501831e-01" nType="0">
            <Node pos="l" depth="3" NCoef="0" IVar="-1" Cut="0.0000000000000000e+00" cType="1" res="4.3514128774404526e-02" rms="4.8533177375793457e-01" purity="5.9298431873321533e-01" nType="-99"/>
            <Node pos="r" depth="3" NCoef="0" IVar="-1" Cut="0.0000000000000000e+00" cType="1" res="1.4512607455253601e-01" rms="4.9011561274528503e-01" purity="4.5867556333541870e-01" nType="-99"/>
          </Node>
          <Node pos="r" depth="2" NCoef="0" IVar="4" Cut="8.6826306581497192e-01" cType="1" res="-8.6388345807790756e-03" rms="4.8282486200332642e-01" purity="5.5640846490859985e-01" nType="0">
            <Node pos="l" depth="3" NCoef="0" IVar="-1" Cut="0.0000000000000000e+00" cType="1" res="3.1709685921669006e-02" rms="4.7538152337074280e-01" purity="6.2384545803070068e-01" nType="-99"/>
            <Node pos="r" depth="3" NCoef="0" IVar="-1" Cut="0.0000000000000000e+00" cType="1" res="-4.6652354300022125e-02" rms="4.8652896285057068e-01" purity="5.1794570684432983e-01" nType="-99"/>
          </Node>
        </Node>
        <Node pos="r" depth="1" NCoef="0" IVar="0" Cut="1.6631559133529663e+00" cType="1" res="-1.4536966569721699e-02" rms="4.7204151749610901e-01" purity="4.3757838010787964e-01" nType="0">
          <Node pos="l" depth="2" NCoef="0" IVar="3" Cut="5.4937440156936646e-01" cType="1" res="-2.3128811269998550e-02" rms="4.7752860188484192e-01" purity="4.7076854109764099e-01" nType="0">
            <Node pos="l" depth="3" NCoef="0" IVar="-1" Cut="0.0000000000000000e+00" cType="1" res="4.7697335481643677e-02" rms="4.8543727397918701e-01" purity="5.5520385503768921e-01" nType="-99"/>
            <Node pos="r" depth="3" NCoef="0" IVar="-1" Cut="0.0000000000000000e+00" cType="1" res="-6.1248607933521271e-02" rms="4.7641614079475403e-01" purity="4.6168184280395508e-01" nType="-99"/>
          </Node>
          <Node pos="r" depth="2" NCoef="0" IVar="4" Cut="7.4754631519317627e-01" cType="1" res="1.3168774312362075e-03" rms="4.6132558584213257e-01" purity="3.7633508443832397e-01" nType="0">
            <Node pos="l" depth="3" NCoef="0" IVar="-1" Cut="0.0000000000000000e+00" cType="1" res="1.0539960116147995e-01" rms="4.7457489371299744e-01" purity="4.4352936744689941e-01" nType="-99"/>
            <Node pos="r" depth="3" NCoef="0" IVar="-1" Cut="0.0000000000000000e+00" cType="1" res="-2.7804251760244370e-02" rms="4.5653918385505676e-01" purity="3.5650387406349182e-01" nType="-99"/>
          </Node>
        </Node>
      </Node>
    </BinaryTree>
    <BinaryTree type="DecisionTree" boostWeight="1.0000000000000000e+00" itree="7">
      <Node pos="s" depth="0" NCoef="0" IVar="4" Cut="1.4423542022705078e+00" cType="1" res="-7.2309194365516305e-05" rms="4.7810125350952148e-01" purity="5.0000000000000000e-01" nType="0">
        <Node pos="l" depth="1" NCoef="0" IVar="6" Cut="2.5431869029998779e+00" cType="1" res="-4.5993523672223091e-03" rms="4.7841393947601318e-01" purity="5.2074038982391357e-01" nType="0">
          <Node pos="l" depth="2" NCoef="0" IVar="5" Cut="-1.3463010787963867e+00" cType="1" res="-7.6619568280875683e-03" rms="4.7811433672904968e-01" purity="5.1582837104797363e-01" nType="0">
            <Node pos="l" depth="3" NCoef="0" IVar="-1" Cut="0.0000000000000000e+00" cType="1" res="2.7282748371362686e-02" rms="4.7935634851455688e-01" purity="5.3861600160598755e-01" nType="-99"/>
            <Node pos="r" depth="3" NCoef="0" IVar="-1" Cut="0.0000000000000000e+00" cType="1" res="-3.3387940376996994e-02" rms="4.7742924094200134e-01" purity="5.0729459524154663e-01" nType="-99"/>
          </Node>
          <Node pos="r" depth="2" NCoef="0" IVar="5" Cut="-4.4803291559219360e-01" cType="1" res="2.3104276508092880e-02" rms="4.8022902011871338e-01" purity="5.6517285108566284e-01" nType="0">
            <Node pos="l" depth="3" NCoef="0" IVar="-1" Cut="0.0000000000000000e+00" cType="1" res="-3.8413211703300476e-02" rms="4.8415026068687439e-01" purity="5.7507032155990601e-01" nType="-99"/>
            <Node pos="r" depth="3" NCoef="0" IVar="-1" Cut="0.0000000000000000e+00" cType="1" res="1.1231958121061325e-01" rms="4.7532114386558533e-01" purity="5.5810219049453735e-01" nType="-99"/>
          </Node>
        </Node>
        <Node pos="r" depth="1" NCoef="0" IVar="5" Cut="1.9446066617965698e+00" cType="1" res="1.4586516655981541e-02" rms="4.7679251432418823e-01" purity="4.3284150958061218e-01" nType="0">
          <Node pos="l" depth="2" NCoef="0" IVar="6" Cut="-1.4937543869018555e-01" cType="1" res="2.2960100322961807e-02" rms="4.7575652599334717e-01" purity="4.1484224796295166e-01" nType="0">
            <Node pos="l" depth="3" NCoef="0" IVar="-1" Cut="0.0000000000000000e+00" cType="1" res="1.0015057027339935e-01" rms="4.7777524590492249e-01" purity="4.2218634486198425e-01" nType="-99"/>
            <Node pos="r" depth="3" NCoef="0" IVar="-1" Cut="0.0000000000000000e+00" cType="1" res="9.3521103262901306e-03" rms="4.7313675284385681e-01" purity="4.0819355845451355e-01" nType="-99"/>
          </Node>
          <Node pos="r" depth="2" NCoef="0" IVar="-1" Cut="0.0000000000000000e+00" cType="1" res="-4.8200815916061401e-02" rms="4.7956693172454834e-01" purity="5.1069855690002441e-01" nType="-99"/>
        </Node>
      </Node>
    </BinaryTree>
    <BinaryTree type="DecisionTree" boostWeight="1.0000000000000000e+00" itree="8">
      <Node pos="s" depth="0" NCoef="0" IVar="4" Cut="1.9635261297225952e+00" cType="1" res="-3.2110139727592468e-05" rms="4.7759497165679932e-01" purity="5.0000000000000000e-01" nType="0">
        <Node pos="l" depth="1" NCoef="0" IVar="4" Cut="1.6657103300094604e+00" cType="1" res="1.8488885834813118e-03" rms="4.7827079892158508e-01" purity="5.0834441184997559e-01" nType="0">
          <Node pos="l" depth="2" NCoef="0" IVar="5" Cut="-2.2438597679138184e+00" cType="1" res="-3.0593358678743243e-04" rms="4.7842645645141602e-01" purity="5.1229614019393921e-01" nType="0">
            <Node pos="l" depth="3" NCoef="0" IVar="-1" Cut="0.0000000000000000e+00" cType="1" res="-3.6024075001478195e-02" rms="4.8203852772712708e-01" purity="5.4253786802291870e-01" nType="-99"/>
            <Node pos="r" depth="3" NCoef="0" IVar="-1" Cut="0.0000000000000000e+00" cType="1" res="4.8502450808882713e-03" rms="4.7780311107635498e-01" purity="5.0750625133514404e-01" nType="-99"/>
          </Node>
          <Node pos="r" depth="2" NCoef="0" IVar="4" Cut="1.7366411685943604e+00" cType="1" res="2.4267038330435753e-02" rms="4.7607031464576721e-01" purity="4.6723192930221558e-01" nType="0">
            <Node pos="l" depth="3" NCoef="0" IVar="-1" Cut="0.0000000000000000e+00" cType="1" res="1.1954972147941589e-01" rms="4.8543831706047058e-01" purity="4.9276018142700195e-01" nType="-99"/>
            <Node pos="r" depth="3" NCoef="0" IVar="-1" Cut="0.0000000000000000e+00" cType="1" res="2.4750620126724243e-02" rms="4.7131058573722839e-01" purity="4.5604071021080017e-01" nType="-99"/>
          </Node>
        </Node>
        <Node pos="r" depth="1" NCoef="0" IVar="6" Cut="-1.4884117245674133e-01" cType="1" res="-2.9511805623769760e-02" rms="4.6588414907455444e-01" purity="3.6922290921211243e-01" nType="0">
          <Node pos="l" depth="2" NCoef="0" IVar="-1" Cut="0.0000000000000000e+00" cType="1" res="-1.2682108581066132e-01" rms="4.6202152967453003e-01" purity="3.6112064123153687e-01" nType="-99"/>
          <Node pos="r" depth="2" NCoef="0" IVar="-1" Cut="0.0000000000000000e+00" cType="1" res="-1.7041390761733055e-02" rms="4.6797379851341248e-01" purity="3.7604844570159912e-01" nType="-99"/>
        </Node>
      </Node>
    </BinaryTree>
    <BinaryTree type="DecisionTree" boostWeight="1.0000000000000000e+00" itree="9">
      <Node pos="s" depth="0" NCoef="0" IVar="0" Cut="2.0190365314483643e+00" cType="1" res="-3.4697666706051677e-05" rms="4.7738379240036011e-01" purity="5.0000000000000000e-01" nType="0">
        <Node pos="l" depth="1" NCoef="0" IVar="6" Cut="-1.6455916166305542e+00" cType="1" res="-1.6254008514806628e-03" rms="4.7921049594879150e-01" purity="5.1554405689239502e-01" nType="0">
          <Node pos="l" depth="2" NCoef="0" IVar="5" Cut="-1.6458053588867188e+00" cType="1" res="1.0202191770076752e-02" rms="4.7953331470489502e-01" purity="5.4492461681365967e-01" nType="0">
            <Node pos="l" depth="3" NCoef="0" IVar="-1" Cut="0.0000000000000000e+00" cType="1" res="-1.7410108447074890e-01" rms="4.8794052004814148e-01" purity="4.8767125606536865e-01" nType="-99"/>
            <Node pos="r" depth="3" NCoef="0" IVar="-1" Cut="0.0000000000000000e+00" cType="1" res="5.3707245737314224e-02" rms="4.7663623094558716e-01" purity="5.5390226840972900e-01" nType="-99"/>
          </Node>
          <Node pos="r" depth="2" NCoef="0" IVar="5" Cut="-7.4789083003997803e-01" cType="1" res="-5.0851823762059212e-03" rms="4.7906082868576050e-01" purity="5.0694978237152100e-01" nType="0">
            <Node pos="l" depth="3" NCoef="0" IVar="-1" Cut="0.0000000000000000e+00" cType="1" res="2.0560957491397858e-02" rms="4.7923192381858826e-01" purity="5.3538012504577637e-01" nType="-99"/>
            <Node pos="r" depth="3" NCoef="0" IVar="-1" Cut="0.0000000000000000e+00" cType="1" res="-3.1691521406173706e-02" rms="4.7871279716491699e-01" purity="4.8849129676818848e-01" nType="-99"/>
          </Node>
        </Node>
        <Node pos="r" depth="1" NCoef="0" IVar="6" Cut="-1.6456108093261719e+00" cType="1" res="1.0504603385925293e-02" rms="4.6496218442916870e-01" purity="3.9701166749000549e-01" nType="0">
          <Node pos="l" depth="2" NCoef="0" IVar="-1" Cut="0.0000000000000000e+00" cType="1" res="-4.0357954800128937e-02" rms="4.5965173840522766e-01" purity="3.9205825328826904e-01" nType="-99"/>
          <Node pos="r" depth="2" NCoef="0" IVar="4" Cut="1.6063516139984131e+00" cType="1" res="1.8584672361612320e-02" rms="4.6616521477699280e-01" purity="3.9843657612800598e-01" nType="0">
            <Node pos="l" depth="3" NCoef="0" IVar="-1" Cut="0.0000000000000000e+00" cType="1" res="6.5541438758373260e-02" rms="4.6892720460891724e-01" purity="4.1289782524108887e-01" nType="-99"/>
            <Node pos="r" depth="3" NCoef="0" IVar="-1" Cut="0.0000000000000000e+00" cType="1" res="-2.1605666726827621e-02" rms="4.5698454976081848e-01" purity="3.5672846436500549e-01" nType="-99"/>
          </Node>
        </Node>
      </Node>
    </BinaryTree>
  </Weights>
</MethodSetup>
